<?xml version="1.0"?>
<opencv_storage>
<cascade>
  <stageType>BOOST</stageType>
  <featureType>HAAR</featureType>
  <height>20</height>
  <width>20</width>
  <stageParams>
    <boostType>GAB</boostType>
    <minHitRate>9.9500000476837158e-01</minHitRate>
    <maxFalseAlarm>5.0000000000000000e-01</maxFalseAlarm>
    <weightTrimRate>9.4999999999999996e-01</weightTrimRate>
    <maxDepth>1</maxDepth>
    <maxWeakCount>100</maxWeakCount></stageParams>
  <featureParams>
    <maxCatCount>0</maxCatCount>
    <featSize>1</featSize>
    <mode>BASIC</mode></featureParams>
  <stageNum>15</stageNum>
  <stages>
    <!-- stage 0 -->
    <_>
      <maxWeakCount>5</maxWeakCount>
      <stageThreshold>-6.8970978260040283e-01</stageThreshold>
      <weakClassifiers>
        <_>
          <internalNodes>
            0 -1 81 -4.1319457814097404e-03</internalNodes>
          <leafValues>
            -9.3181818723678589e-01 5.7964599132537842e-01</leafValues></_>
        <_>
          <internalNodes>
            0 -1 19 2.2232588380575180e-02</internalNodes>
          <leafValues>
            3.4702935814857483e-01 -8.9863681793212891e-01</leafValues></_>
        <_>
          <internalNodes>
            0 -1 47 1.8351420294493437e-04</internalNodes>
          <leafValues>
            -7.0371484756469727e-01 3.1336617469787598e-01</leafValues></_>
        <_>
          <internalNodes>
            0 -1 28 -4.4508283026516438e-03</internalNodes>
          <leafValues>
            -8.8590127229690552e-01 2.9009374976158142e-01</leafValues></_>
        <_>
          <internalNodes>
            0 -1 66 1.4378363266587257e-02</internalNodes>
          <leafValues>
            2.0181611180305481e-01 -8.4426677227020264e-01</leafValues></_></weakClassifiers></_>
    <!-- stage 1 -->
    <_>
      <maxWeakCount>5</maxWeakCount>
      <stageThreshold>-9.7160649299621582e-01</stageThreshold>
      <weakClassifiers>
        <_>
          <internalNodes>
            0 -1 58 -2.2479640319943428e-02</internalNodes>
          <leafValues>
            -8.6163520812988281e-01 5.8974361419677734e-01</leafValues></_>
        <_>
          <internalNodes>
            0 -1 38 2.0876755006611347e-03</internalNodes>
          <leafValues>
            -6.0399538278579712e-01 4.7094967961311340e-01</leafValues></_>
        <_>
          <internalNodes>
            0 -1 13 2.8758682310581207e-02</internalNodes>
          <leafValues>
            2.7781215310096741e-01 -9.0547257661819458e-01</leafValues></_>
        <_>
          <internalNodes>
            0 -1 70 1.9328705966472626e-03</internalNodes>
          <leafValues>
            -6.3228237628936768e-01 3.0639034509658813e-01</leafValues></_>
        <_>
          <internalNodes>
            0 -1 116 -7.4885683716274798e-05</internalNodes>
          <leafValues>
            3.5078045725822449e-01 -6.0288447141647339e-01</leafValues></_></weakClassifiers></_>
    <!-- stage 2 -->
    <_>
      <maxWeakCount>8</maxWeakCount>
      <stageThreshold>-6.1941546201705933e-01</stageThreshold>
      <weakClassifiers>
        <_>
          <internalNodes>
            0 -1 88 7.6445133890956640e-04</internalNodes>
          <leafValues>
            -4.9068322777748108e-01 5.9143966436386108e-01</leafValues></_>
        <_>
          <internalNodes>
            0 -1 105 2.6610444183461368e-04</internalNodes>
          <leafValues>
            -6.3308477401733398e-01 3.6921021342277527e-01</leafValues></_>
        <_>
          <internalNodes>
            0 -1 26 2.0406940951943398e-02</internalNodes>
          <leafValues>
            2.6302954554557800e-01 -8.9258873462677002e-01</leafValues></_>
        <_>
          <internalNodes>
            0 -1 36 -1.2094726786017418e-02</internalNodes>
          <leafValues>
            -8.9673805236816406e-01 1.2813720107078552e-01</leafValues></_>
        <_>
          <internalNodes>
            0 -1 33 -1.0958975326502696e-04</internalNodes>
          <leafValues>
            2.6779028773307800e-01 -6.4976352453231812e-01</leafValues></_>
        <_>
          <internalNodes>
            0 -1 25 -3.4423503093421459e-03</internalNodes>
          <leafValues>
            -9.0765786170959473e-01 1.4583377540111542e-01</leafValues></_>
        <_>
          <internalNodes>
            0 -1 6 -1.7532159108668566e-03</internalNodes>
          <leafValues>
            4.9824604392051697e-01 -3.4821939468383789e-01</leafValues></_>
        <_>
          <internalNodes>
            0 -1 52 -4.6263247728347778e-02</internalNodes>
          <leafValues>
            -8.8261318206787109e-01 1.9236488640308380e-01</leafValues></_></weakClassifiers></_>
    <!-- stage 3 -->
    <_>
      <maxWeakCount>7</maxWeakCount>
      <stageThreshold>-7.0266580581665039e-01</stageThreshold>
      <weakClassifiers>
        <_>
          <internalNodes>
            0 -1 23 1.8286464735865593e-02</internalNodes>
          <leafValues>
            5.1721167564392090e-01 -8.0319148302078247e-01</leafValues></_>
        <_>
          <internalNodes>
            0 -1 12 4.9456092528998852e-04</internalNodes>
          <leafValues>
            -6.3627749681472778e-01 3.7834265828132629e-01</leafValues></_>
        <_>
          <internalNodes>
            0 -1 73 -1.0375888086855412e-04</internalNodes>
          <leafValues>
            2.9330945014953613e-01 -6.3463854789733887e-01</leafValues></_>
        <_>
          <internalNodes>
            0 -1 113 -1.7891870811581612e-04</internalNodes>
          <leafValues>
            2.9556927084922791e-01 -5.8526563644409180e-01</leafValues></_>
        <_>
          <internalNodes>
            0 -1 68 -1.3901263475418091e-02</internalNodes>
          <leafValues>
            -8.7524980306625366e-01 2.1843194961547852e-01</leafValues></_>
        <_>
          <internalNodes>
            0 -1 7 2.3321453481912613e-03</internalNodes>
          <leafValues>
            -3.8339656591415405e-01 4.9736514687538147e-01</leafValues></_>
        <_>
          <internalNodes>
            0 -1 27 8.0480733886361122e-03</internalNodes>
          <leafValues>
            2.2621691226959229e-01 -8.1125652790069580e-01</leafValues></_></weakClassifiers></_>
    <!-- stage 4 -->
    <_>
      <maxWeakCount>8</maxWeakCount>
      <stageThreshold>-1.0390744209289551e+00</stageThreshold>
      <weakClassifiers>
        <_>
          <internalNodes>
            0 -1 120 -6.1183987418189645e-04</internalNodes>
          <leafValues>
            6.1178326606750488e-01 -3.2916146516799927e-01</leafValues></_>
        <_>
          <internalNodes>
            0 -1 62 9.8451459780335426e-04</internalNodes>
          <leafValues>
            -5.0921750068664551e-01 3.6633679270744324e-01</leafValues></_>
        <_>
          <internalNodes>
            0 -1 75 2.3174784146249294e-03</internalNodes>
          <leafValues>
            1.9405278563499451e-01 -9.0157127380371094e-01</leafValues></_>
        <_>
          <internalNodes>
            0 -1 71 1.0898899054154754e-03</internalNodes>
          <leafValues>
            -7.8414040803909302e-01 1.6784647107124329e-01</leafValues></_>
        <_>
          <internalNodes>
            0 -1 29 -6.1262240633368492e-03</internalNodes>
          <leafValues>
            -9.4263416528701782e-01 1.6491971909999847e-01</leafValues></_>
        <_>
          <internalNodes>
            0 -1 110 -1.3391263200901449e-04</internalNodes>
          <leafValues>
            3.4262996912002563e-01 -4.4386044144630432e-01</leafValues></_>
        <_>
          <internalNodes>
            0 -1 95 1.5614634379744530e-02</internalNodes>
          <leafValues>
            1.7834731936454773e-01 -8.8583779335021973e-01</leafValues></_>
        <_>
          <internalNodes>
            0 -1 126 -1.7597831785678864e-02</internalNodes>
          <leafValues>
            5.6492251157760620e-01 -2.9650482535362244e-01</leafValues></_></weakClassifiers></_>
    <!-- stage 5 -->
    <_>
      <maxWeakCount>8</maxWeakCount>
      <stageThreshold>-8.4520447254180908e-01</stageThreshold>
      <weakClassifiers>
        <_>
          <internalNodes>
            0 -1 37 -1.5539702028036118e-02</internalNodes>
          <leafValues>
            -7.6960784196853638e-01 5.2966839075088501e-01</leafValues></_>
        <_>
          <internalNodes>
            0 -1 76 -2.0011611282825470e-02</internalNodes>
          <leafValues>
            6.7675048112869263e-01 -2.7833014726638794e-01</leafValues></_>
        <_>
          <internalNodes>
            0 -1 89 -2.0824845414608717e-03</internalNodes>
          <leafValues>
            5.2641773223876953e-01 -3.4189185500144958e-01</leafValues></_>
        <_>
          <internalNodes>
            0 -1 63 1.3211710029281676e-04</internalNodes>
          <leafValues>
            -5.1022773981094360e-01 3.4186363220214844e-01</leafValues></_>
        <_>
          <internalNodes>
            0 -1 94 -1.0880856774747372e-02</internalNodes>
          <leafValues>
            6.3273489475250244e-01 -3.0070695281028748e-01</leafValues></_>
        <_>
          <internalNodes>
            0 -1 54 1.1389658320695162e-03</internalNodes>
          <leafValues>
            2.4085527658462524e-01 -9.5349115133285522e-01</leafValues></_>
        <_>
          <internalNodes>
            0 -1 93 -3.1149145215749741e-03</internalNodes>
          <leafValues>
            5.5827420949935913e-01 -3.5156643390655518e-01</leafValues></_>
        <_>
          <internalNodes>
            0 -1 106 1.0522769764065742e-02</internalNodes>
          <leafValues>
            1.6699495911598206e-01 -8.8213384151458740e-01</leafValues></_></weakClassifiers></_>
    <!-- stage 6 -->
    <_>
      <maxWeakCount>10</maxWeakCount>
      <stageThreshold>-8.4826737642288208e-01</stageThreshold>
      <weakClassifiers>
        <_>
          <internalNodes>
            0 -1 115 -6.2648020684719086e-03</internalNodes>
          <leafValues>
            -7.5384616851806641e-01 4.8210525512695312e-01</leafValues></_>
        <_>
          <internalNodes>
            0 -1 124 2.9043419635854661e-04</internalNodes>
          <leafValues>
            2.9475250840187073e-01 -6.4296931028366089e-01</leafValues></_>
        <_>
          <internalNodes>
            0 -1 4 1.4802835881710052e-02</internalNodes>
          <leafValues>
            -2.4813856184482574e-01 6.1672604084014893e-01</leafValues></_>
        <_>
          <internalNodes>
            0 -1 5 -1.8943657632917166e-03</internalNodes>
          <leafValues>
            6.0093593597412109e-01 -2.5201177597045898e-01</leafValues></_>
        <_>
          <internalNodes>
            0 -1 57 2.7113615069538355e-03</internalNodes>
          <leafValues>
            -6.6769808530807495e-01 2.3178076744079590e-01</leafValues></_>
        <_>
          <internalNodes>
            0 -1 21 3.7331907078623772e-03</internalNodes>
          <leafValues>
            1.7961439490318298e-01 -8.1655257940292358e-01</leafValues></_>
        <_>
          <internalNodes>
            0 -1 35 2.8197938809171319e-04</internalNodes>
          <leafValues>
            -5.4306995868682861e-01 2.3019605875015259e-01</leafValues></_>
        <_>
          <internalNodes>
            0 -1 53 5.9445640072226524e-03</internalNodes>
          <leafValues>
            1.9759260118007660e-01 -7.6884323358535767e-01</leafValues></_>
        <_>
          <internalNodes>
            0 -1 67 -2.7101475745439529e-02</internalNodes>
          <leafValues>
            -8.7935811281204224e-01 1.3726206123828888e-01</leafValues></_>
        <_>
          <internalNodes>
            0 -1 103 4.6126736560836434e-04</internalNodes>
          <leafValues>
            -3.6171883344650269e-01 3.8047540187835693e-01</leafValues></_></weakClassifiers></_>
    <!-- stage 7 -->
    <_>
      <maxWeakCount>9</maxWeakCount>
      <stageThreshold>-9.4052648544311523e-01</stageThreshold>
      <weakClassifiers>
        <_>
          <internalNodes>
            0 -1 69 -1.6735862009227276e-03</internalNodes>
          <leafValues>
            6.0920715332031250e-01 -3.9060401916503906e-01</leafValues></_>
        <_>
          <internalNodes>
            0 -1 112 -2.0012818276882172e-04</internalNodes>
          <leafValues>
            3.6041745543479919e-01 -5.2762311697006226e-01</leafValues></_>
        <_>
          <internalNodes>
            0 -1 91 2.5283601135015488e-03</internalNodes>
          <leafValues>
            -2.9114517569541931e-01 4.9385568499565125e-01</leafValues></_>
        <_>
          <internalNodes>
            0 -1 22 9.4579168944619596e-05</internalNodes>
          <leafValues>
            -5.1786684989929199e-01 2.8531607985496521e-01</leafValues></_>
        <_>
          <internalNodes>
            0 -1 39 -6.7396741360425949e-03</internalNodes>
          <leafValues>
            -8.7271720170974731e-01 1.3357448577880859e-01</leafValues></_>
        <_>
          <internalNodes>
            0 -1 96 2.4707308039069176e-03</internalNodes>
          <leafValues>
            -2.4230110645294189e-01 5.9877026081085205e-01</leafValues></_>
        <_>
          <internalNodes>
            0 -1 49 9.6602514386177063e-03</internalNodes>
          <leafValues>
            1.7205214500427246e-01 -8.9655435085296631e-01</leafValues></_>
        <_>
          <internalNodes>
            0 -1 9 -1.8044904572889209e-04</internalNodes>
          <leafValues>
            2.7050024271011353e-01 -4.5204699039459229e-01</leafValues></_>
        <_>
          <internalNodes>
            0 -1 107 1.5480795875191689e-02</internalNodes>
          <leafValues>
            1.7562298476696014e-01 -8.5791033506393433e-01</leafValues></_></weakClassifiers></_>
    <!-- stage 8 -->
    <_>
      <maxWeakCount>10</maxWeakCount>
      <stageThreshold>-8.3709079027175903e-01</stageThreshold>
      <weakClassifiers>
        <_>
          <internalNodes>
            0 -1 64 6.2809427618049085e-05</internalNodes>
          <leafValues>
            -3.2564842700958252e-01 5.6131607294082642e-01</leafValues></_>
        <_>
          <internalNodes>
            0 -1 125 -1.7621337901800871e-03</internalNodes>
          <leafValues>
            3.8448503613471985e-01 -3.8441246747970581e-01</leafValues></_>
        <_>
          <internalNodes>
            0 -1 121 -8.9110489934682846e-03</internalNodes>
          <leafValues>
            -8.5645705461502075e-01 1.5554045140743256e-01</leafValues></_>
        <_>
          <internalNodes>
            0 -1 87 -4.3508806265890598e-03</internalNodes>
          <leafValues>
            2.4489481747150421e-01 -4.5412951707839966e-01</leafValues></_>
        <_>
          <internalNodes>
            0 -1 46 -8.5644330829381943e-03</internalNodes>
          <leafValues>
            -9.2257875204086304e-01 1.2697631120681763e-01</leafValues></_>
        <_>
          <internalNodes>
            0 -1 45 3.2150104641914368e-02</internalNodes>
          <leafValues>
            1.0219554603099823e-01 -8.9653265476226807e-01</leafValues></_>
        <_>
          <internalNodes>
            0 -1 97 4.6610354911535978e-04</internalNodes>
          <leafValues>
            -5.9299081563949585e-01 1.8752056360244751e-01</leafValues></_>
        <_>
          <internalNodes>
            0 -1 20 -7.0283334935083985e-05</internalNodes>
          <leafValues>
            2.6572540402412415e-01 -4.2542845010757446e-01</leafValues></_>
        <_>
          <internalNodes>
            0 -1 16 -5.0133839249610901e-03</internalNodes>
          <leafValues>
            -8.2056051492691040e-01 1.4055046439170837e-01</leafValues></_>
        <_>
          <internalNodes>
            0 -1 36 -4.8983697779476643e-03</internalNodes>
          <leafValues>
            -7.6094597578048706e-01 1.2910227477550507e-01</leafValues></_></weakClassifiers></_>
    <!-- stage 9 -->
    <_>
      <maxWeakCount>12</maxWeakCount>
      <stageThreshold>-8.5975116491317749e-01</stageThreshold>
      <weakClassifiers>
        <_>
          <internalNodes>
            0 -1 123 -4.1219312697649002e-04</internalNodes>
          <leafValues>
            5.8602708578109741e-01 -2.8644502162933350e-01</leafValues></_>
        <_>
          <internalNodes>
            0 -1 104 -5.9531681472435594e-04</internalNodes>
          <leafValues>
            4.7983485460281372e-01 -3.0002999305725098e-01</leafValues></_>
        <_>
          <internalNodes>
            0 -1 82 1.4305692166090012e-03</internalNodes>
          <leafValues>
            -3.6502075195312500e-01 4.0675362944602966e-01</leafValues></_>
        <_>
          <internalNodes>
            0 -1 40 3.2252538949251175e-03</internalNodes>
          <leafValues>
            1.6305240988731384e-01 -8.6089253425598145e-01</leafValues></_>
        <_>
          <internalNodes>
            0 -1 98 -6.3110031187534332e-03</internalNodes>
          <leafValues>
            4.0651458501815796e-01 -3.3997440338134766e-01</leafValues></_>
        <_>
          <internalNodes>
            0 -1 18 1.0397747159004211e-02</internalNodes>
          <leafValues>
            1.7384111881256104e-01 -7.1092814207077026e-01</leafValues></_>
        <_>
          <internalNodes>
            0 -1 92 -2.7947251219302416e-03</internalNodes>
          <leafValues>
            4.9081751704216003e-01 -2.7835884690284729e-01</leafValues></_>
        <_>
          <internalNodes>
            0 -1 108 -5.3767711506225169e-05</internalNodes>
          <leafValues>
            3.0598035454750061e-01 -4.3164387345314026e-01</leafValues></_>
        <_>
          <internalNodes>
            0 -1 61 5.1399548538029194e-03</internalNodes>
          <leafValues>
            1.5554863214492798e-01 -8.4880900382995605e-01</leafValues></_>
        <_>
          <internalNodes>
            0 -1 32 -1.2141976505517960e-02</internalNodes>
          <leafValues>
            5.8674490451812744e-01 -2.3342525959014893e-01</leafValues></_>
        <_>
          <internalNodes>
            0 -1 1 -2.4384625256061554e-02</internalNodes>
          <leafValues>
            6.6096502542495728e-01 -2.3235988616943359e-01</leafValues></_>
        <_>
          <internalNodes>
            0 -1 2 2.5014633312821388e-02</internalNodes>
          <leafValues>
            -2.3842847347259521e-01 6.0696494579315186e-01</leafValues></_></weakClassifiers></_>
    <!-- stage 10 -->
    <_>
      <maxWeakCount>10</maxWeakCount>
      <stageThreshold>-8.6978369951248169e-01</stageThreshold>
      <weakClassifiers>
        <_>
          <internalNodes>
            0 -1 25 -1.9640373066067696e-03</internalNodes>
          <leafValues>
            -7.3195874691009521e-01 4.6201744675636292e-01</leafValues></_>
        <_>
          <internalNodes>
            0 -1 127 -9.0484563261270523e-03</internalNodes>
          <leafValues>
            6.0911142826080322e-01 -2.3401872813701630e-01</leafValues></_>
        <_>
          <internalNodes>
            0 -1 33 3.9780209772288799e-04</internalNodes>
          <leafValues>
            2.1036921441555023e-01 -6.9188529253005981e-01</leafValues></_>
        <_>
          <internalNodes>
            0 -1 90 2.5203078985214233e-03</internalNodes>
          <leafValues>
            -2.4736179411411285e-01 4.9947625398635864e-01</leafValues></_>
        <_>
          <internalNodes>
            0 -1 111 5.1406980492174625e-04</internalNodes>
          <leafValues>
            -4.4209453463554382e-01 3.0298236012458801e-01</leafValues></_>
        <_>
          <internalNodes>
            0 -1 8 1.0798231232911348e-03</internalNodes>
          <leafValues>
            -3.0955228209495544e-01 4.0140914916992188e-01</leafValues></_>
        <_>
          <internalNodes>
            0 -1 56 3.8587511517107487e-03</internalNodes>
          <leafValues>
            1.9512291252613068e-01 -7.2266721725463867e-01</leafValues></_>
        <_>
          <internalNodes>
            0 -1 129 2.7537976857274771e-03</internalNodes>
          <leafValues>
            -3.0894997715950012e-01 4.8377904295921326e-01</leafValues></_>
        <_>
          <internalNodes>
            0 -1 114 4.0879724547266960e-03</internalNodes>
          <leafValues>
            1.8878580629825592e-01 -8.6104249954223633e-01</leafValues></_>
        <_>
          <internalNodes>
            0 -1 31 8.4298597357701510e-05</internalNodes>
          <leafValues>
            -5.8880060911178589e-01 1.9847665727138519e-01</leafValues></_></weakClassifiers></_>
    <!-- stage 11 -->
    <_>
      <maxWeakCount>10</maxWeakCount>
      <stageThreshold>-8.4515458345413208e-01</stageThreshold>
      <weakClassifiers>
        <_>
          <internalNodes>
            0 -1 30 1.8019165843725204e-02</internalNodes>
          <leafValues>
            4.4729346036911011e-01 -8.1893002986907959e-01</leafValues></_>
        <_>
          <internalNodes>
            0 -1 59 -6.6715632565319538e-03</internalNodes>
          <leafValues>
            3.3401226997375488e-01 -5.6257843971252441e-01</leafValues></_>
        <_>
          <internalNodes>
            0 -1 34 -9.4130048528313637e-03</internalNodes>
          <leafValues>
            -7.9078805446624756e-01 9.1290280222892761e-02</leafValues></_>
        <_>
          <internalNodes>
            0 -1 117 -7.3324324330314994e-04</internalNodes>
          <leafValues>
            2.7205500006675720e-01 -5.0582760572433472e-01</leafValues></_>
        <_>
          <internalNodes>
            0 -1 77 -3.4075185656547546e-02</internalNodes>
          <leafValues>
            4.8030090332031250e-01 -2.5412139296531677e-01</leafValues></_>
        <_>
          <internalNodes>
            0 -1 78 -3.0260212719440460e-02</internalNodes>
          <leafValues>
            6.1069959402084351e-01 -2.2617320716381073e-01</leafValues></_>
        <_>
          <internalNodes>
            0 -1 79 2.1130619570612907e-02</internalNodes>
          <leafValues>
            -2.9636093974113464e-01 5.8670198917388916e-01</leafValues></_>
        <_>
          <internalNodes>
            0 -1 42 1.6372095793485641e-02</internalNodes>
          <leafValues>
            -1.9544292986392975e-01 6.0240101814270020e-01</leafValues></_>
        <_>
          <internalNodes>
            0 -1 60 -2.0938180387020111e-03</internalNodes>
          <leafValues>
            -7.9163640737533569e-01 1.9066266715526581e-01</leafValues></_>
        <_>
          <internalNodes>
            0 -1 84 2.8340480639599264e-04</internalNodes>
          <leafValues>
            -3.3174040913581848e-01 3.4623983502388000e-01</leafValues></_></weakClassifiers></_>
    <!-- stage 12 -->
    <_>
      <maxWeakCount>12</maxWeakCount>
      <stageThreshold>-7.4141579866409302e-01</stageThreshold>
      <weakClassifiers>
        <_>
          <internalNodes>
            0 -1 72 4.2636981233954430e-03</internalNodes>
          <leafValues>
            -1.8984280526638031e-01 5.6433528661727905e-01</leafValues></_>
        <_>
          <internalNodes>
            0 -1 100 4.4300791341811419e-04</internalNodes>
          <leafValues>
            -2.5420403480529785e-01 4.5706987380981445e-01</leafValues></_>
        <_>
          <internalNodes>
            0 -1 43 -6.7665404640138149e-03</internalNodes>
          <leafValues>
            -7.6979935169219971e-01 1.6075403988361359e-01</leafValues></_>
        <_>
          <internalNodes>
            0 -1 122 -2.6337141171097755e-03</internalNodes>
          <leafValues>
            -7.8079175949096680e-01 1.3438831269741058e-01</leafValues></_>
        <_>
          <internalNodes>
            0 -1 14 2.5274523068219423e-04</internalNodes>
          <leafValues>
            -4.6942809224128723e-01 2.3378859460353851e-01</leafValues></_>
        <_>
          <internalNodes>
            0 -1 119 8.1952539039775729e-04</internalNodes>
          <leafValues>
            1.2272315472364426e-01 -8.2051348686218262e-01</leafValues></_>
        <_>
          <internalNodes>
            0 -1 109 -1.2600012996699661e-04</internalNodes>
          <leafValues>
            2.8942328691482544e-01 -3.6389330029487610e-01</leafValues></_>
        <_>
          <internalNodes>
            0 -1 28 8.2182688638567924e-03</internalNodes>
          <leafValues>
            1.3063453137874603e-01 -7.2292327880859375e-01</leafValues></_>
        <_>
          <internalNodes>
            0 -1 48 7.2125054430216551e-04</internalNodes>
          <leafValues>
            -3.3019024133682251e-01 3.1859895586967468e-01</leafValues></_>
        <_>
          <internalNodes>
            0 -1 74 4.2718127369880676e-03</internalNodes>
          <leafValues>
            -2.6754829287528992e-01 4.6463358402252197e-01</leafValues></_>
        <_>
          <internalNodes>
            0 -1 102 -2.5818386347964406e-04</internalNodes>
          <leafValues>
            4.4646707177162170e-01 -2.4232250452041626e-01</leafValues></_>
        <_>
          <internalNodes>
            0 -1 83 -6.2284469604492188e-03</internalNodes>
          <leafValues>
            -9.2767596244812012e-01 1.2429675459861755e-01</leafValues></_></weakClassifiers></_>
    <!-- stage 13 -->
    <_>
      <maxWeakCount>11</maxWeakCount>
      <stageThreshold>-7.5281983613967896e-01</stageThreshold>
      <weakClassifiers>
        <_>
          <internalNodes>
            0 -1 73 -1.2771657202392817e-04</internalNodes>
          <leafValues>
            5.2098065614700317e-01 -3.5405871272087097e-01</leafValues></_>
        <_>
          <internalNodes>
            0 -1 99 -7.7961321221664548e-04</internalNodes>
          <leafValues>
            3.7128227949142456e-01 -3.7845453619956970e-01</leafValues></_>
        <_>
          <internalNodes>
            0 -1 41 1.6104089445434511e-04</internalNodes>
          <leafValues>
            -3.4147295355796814e-01 3.3372235298156738e-01</leafValues></_>
        <_>
          <internalNodes>
            0 -1 44 1.2450234964489937e-02</internalNodes>
          <leafValues>
            1.6234229505062103e-01 -7.2008430957794189e-01</leafValues></_>
        <_>
          <internalNodes>
            0 -1 0 -4.0227216668426991e-03</internalNodes>
          <leafValues>
            4.6169465780258179e-01 -2.8007885813713074e-01</leafValues></_>
        <_>
          <internalNodes>
            0 -1 3 6.7772171460092068e-03</internalNodes>
          <leafValues>
            -2.8659734129905701e-01 5.7294195890426636e-01</leafValues></_>
        <_>
          <internalNodes>
            0 -1 50 -4.2000430403277278e-04</internalNodes>
          <leafValues>
            -6.3498896360397339e-01 1.9254697859287262e-01</leafValues></_>
        <_>
          <internalNodes>
            0 -1 101 1.3413173146545887e-03</internalNodes>
          <leafValues>
            -2.3622879385948181e-01 5.0686115026473999e-01</leafValues></_>
        <_>
          <internalNodes>
            0 -1 80 2.0291978493332863e-02</internalNodes>
          <leafValues>
            1.6116040945053101e-01 -9.5519292354583740e-01</leafValues></_>
        <_>
          <internalNodes>
            0 -1 118 -5.0077307969331741e-04</internalNodes>
          <leafValues>
            2.1623167395591736e-01 -4.5531648397445679e-01</leafValues></_>
        <_>
          <internalNodes>
            0 -1 65 4.4949725270271301e-03</internalNodes>
          <leafValues>
            -2.7601802349090576e-01 5.2697157859802246e-01</leafValues></_></weakClassifiers></_>
    <!-- stage 14 -->
    <_>
      <maxWeakCount>13</maxWeakCount>
      <stageThreshold>-6.6188156604766846e-01</stageThreshold>
      <weakClassifiers>
        <_>
          <internalNodes>
            0 -1 51 2.9256932903081179e-03</internalNodes>
          <leafValues>
            4.4673824310302734e-01 -6.5467625856399536e-01</leafValues></_>
        <_>
          <internalNodes>
            0 -1 85 -5.8373208157718182e-03</internalNodes>
          <leafValues>
            6.2694907188415527e-01 -1.7703068256378174e-01</leafValues></_>
        <_>
          <internalNodes>
            0 -1 15 -1.7928911838680506e-03</internalNodes>
          <leafValues>
            1.4409580826759338e-01 -6.8728536367416382e-01</leafValues></_>
        <_>
          <internalNodes>
            0 -1 86 -3.0371041502803564e-03</internalNodes>
          <leafValues>
            4.6158140897750854e-01 -2.5794565677642822e-01</leafValues></_>
        <_>
          <internalNodes>
            0 -1 128 -3.5554133355617523e-03</internalNodes>
          <leafValues>
            4.1570523381233215e-01 -2.7362909913063049e-01</leafValues></_>
        <_>
          <internalNodes>
            0 -1 55 4.2815087363123894e-03</internalNodes>
          <leafValues>
            1.0730201750993729e-01 -9.4254499673843384e-01</leafValues></_>
        <_>
          <internalNodes>
            0 -1 7 2.5001042522490025e-03</internalNodes>
          <leafValues>
            -2.9694208502769470e-01 3.8410696387290955e-01</leafValues></_>
        <_>
          <internalNodes>
            0 -1 130 -8.6166418623179197e-04</internalNodes>
          <leafValues>
            4.5704552531242371e-01 -2.5153857469558716e-01</leafValues></_>
        <_>
          <internalNodes>
            0 -1 24 -3.0359555967152119e-03</internalNodes>
          <leafValues>
            -8.7052273750305176e-01 1.5173666179180145e-01</leafValues></_>
        <_>
          <internalNodes>
            0 -1 17 2.0655497908592224e-02</internalNodes>
          <leafValues>
            9.6004806458950043e-02 -8.6721110343933105e-01</leafValues></_>
        <_>
          <internalNodes>
            0 -1 47 3.4058938035741448e-04</internalNodes>
          <leafValues>
            -5.1931267976760864e-01 1.5835928916931152e-01</leafValues></_>
        <_>
          <internalNodes>
            0 -1 10 6.1995629221200943e-04</internalNodes>
          <leafValues>
            -3.6186110973358154e-01 2.9743966460227966e-01</leafValues></_>
        <_>
          <internalNodes>
            0 -1 11 4.6864850446581841e-04</internalNodes>
          <leafValues>
            -3.5511851310729980e-01 3.1683626770973206e-01</leafValues></_></weakClassifiers></_></stages>
  <features>
    <_>
      <rects>
        <_>
          0 6 2 6 -1.</_>
        <_>
          0 6 1 3 2.</_>
        <_>
          1 9 1 3 2.</_></rects>
      <tilted>0</tilted></_>
    <_>
      <rects>
        <_>
          0 6 4 7 -1.</_>
        <_>
          2 6 2 7 2.</_></rects>
      <tilted>0</tilted></_>
    <_>
      <rects>
        <_>
          0 6 6 6 -1.</_>
        <_>
          3 6 3 6 2.</_></rects>
      <tilted>0</tilted></_>
    <_>
      <rects>
        <_>
          0 7 2 8 -1.</_>
        <_>
          0 7 1 4 2.</_>
        <_>
          1 11 1 4 2.</_></rects>
      <tilted>0</tilted></_>
    <_>
      <rects>
        <_>
          0 9 4 3 -1.</_>
        <_>
          2 9 2 3 2.</_></rects>
      <tilted>0</tilted></_>
    <_>
      <rects>
        <_>
          0 10 2 1 -1.</_>
        <_>
          1 10 1 1 2.</_></rects>
      <tilted>0</tilted></_>
    <_>
      <rects>
        <_>
          0 10 3 1 -1.</_>
        <_>
          1 10 1 1 3.</_></rects>
      <tilted>0</tilted></_>
    <_>
      <rects>
        <_>
          0 10 2 4 -1.</_>
        <_>
          0 10 1 2 2.</_>
        <_>
          1 12 1 2 2.</_></rects>
      <tilted>0</tilted></_>
    <_>
      <rects>
        <_>
          1 6 3 2 -1.</_>
        <_>
          2 6 1 2 3.</_></rects>
      <tilted>0</tilted></_>
    <_>
      <rects>
        <_>
          2 6 6 1 -1.</_>
        <_>
          5 6 3 1 2.</_></rects>
      <tilted>0</tilted></_>
    <_>
      <rects>
        <_>
          2 6 6 4 -1.</_>
        <_>
          2 6 3 2 2.</_>
        <_>
          5 8 3 2 2.</_></rects>
      <tilted>0</tilted></_>
    <_>
      <rects>
        <_>
          2 9 3 2 -1.</_>
        <_>
          3 9 1 2 3.</_></rects>
      <tilted>0</tilted></_>
    <_>
      <rects>
        <_>
          2 12 6 2 -1.</_>
        <_>
          5 12 3 2 2.</_></rects>
      <tilted>0</tilted></_>
    <_>
      <rects>
        <_>
          3 5 14 10 -1.</_>
        <_>
          3 10 14 5 2.</_></rects>
      <tilted>0</tilted></_>
    <_>
      <rects>
        <_>
          3 6 6 4 -1.</_>
        <_>
          3 6 3 2 2.</_>
        <_>
          6 8 3 2 2.</_></rects>
      <tilted>0</tilted></_>
    <_>
      <rects>
        <_>
          3 6 15 5 -1.</_>
        <_>
          8 6 5 5 3.</_></rects>
      <tilted>0</tilted></_>
    <_>
      <rects>
        <_>
          3 7 4 4 -1.</_>
        <_>
          5 7 2 4 2.</_></rects>
      <tilted>0</tilted></_>
    <_>
      <rects>
        <_>
          3 7 6 8 -1.</_>
        <_>
          5 7 2 8 3.</_></rects>
      <tilted>0</tilted></_>
    <_>
      <rects>
        <_>
          3 7 12 7 -1.</_>
        <_>
          9 7 6 7 2.</_></rects>
      <tilted>0</tilted></_>
    <_>
      <rects>
        <_>
          3 7 12 8 -1.</_>
        <_>
          9 7 6 8 2.</_></rects>
      <tilted>0</tilted></_>
    <_>
      <rects>
        <_>
          3 8 2 3 -1.</_>
        <_>
          4 8 1 3 2.</_></rects>
      <tilted>0</tilted></_>
    <_>
      <rects>
        <_>
          3 8 6 2 -1.</_>
        <_>
          5 8 2 2 3.</_></rects>
      <tilted>0</tilted></_>
    <_>
      <rects>
        <_>
          3 12 4 1 -1.</_>
        <_>
          5 12 2 1 2.</_></rects>
      <tilted>0</tilted></_>
    <_>
      <rects>
        <_>
          4 5 10 11 -1.</_>
        <_>
          9 5 5 11 2.</_></rects>
      <tilted>0</tilted></_>
    <_>
      <rects>
        <_>
          4 6 2 9 -1.</_>
        <_>
          5 6 1 9 2.</_></rects>
      <tilted>0</tilted></_>
    <_>
      <rects>
        <_>
          4 6 4 3 -1.</_>
        <_>
          6 6 2 3 2.</_></rects>
      <tilted>0</tilted></_>
    <_>
      <rects>
        <_>
          4 6 12 4 -1.</_>
        <_>
          10 6 6 4 2.</_></rects>
      <tilted>0</tilted></_>
    <_>
      <rects>
        <_>
          4 7 4 7 -1.</_>
        <_>
          6 7 2 7 2.</_></rects>
      <tilted>0</tilted></_>
    <_>
      <rects>
        <_>
          4 7 4 8 -1.</_>
        <_>
          6 7 2 8 2.</_></rects>
      <tilted>0</tilted></_>
    <_>
      <rects>
        <_>
          4 8 4 7 -1.</_>
        <_>
          6 8 2 7 2.</_></rects>
      <tilted>0</tilted></_>
    <_>
      <rects>
        <_>
          4 9 6 4 -1.</_>
        <_>
          6 9 2 4 3.</_></rects>
      <tilted>0</tilted></_>
    <_>
      <rects>
        <_>
          4 12 4 3 -1.</_>
        <_>
          6 12 2 3 2.</_></rects>
      <tilted>0</tilted></_>
    <_>
      <rects>
        <_>
          4 18 10 2 -1.</_>
        <_>
          4 19 10 1 2.</_></rects>
      <tilted>0</tilted></_>
    <_>
      <rects>
        <_>
          5 4 4 3 -1.</_>
        <_>
          7 4 2 3 2.</_></rects>
      <tilted>0</tilted></_>
    <_>
      <rects>
        <_>
          5 4 10 4 -1.</_>
        <_>
          5 6 10 2 2.</_></rects>
      <tilted>0</tilted></_>
    <_>
      <rects>
        <_>
          5 5 3 6 -1.</_>
        <_>
          5 7 3 2 3.</_></rects>
      <tilted>0</tilted></_>
    <_>
      <rects>
        <_>
          5 6 12 8 -1.</_>
        <_>
          11 6 6 8 2.</_></rects>
      <tilted>0</tilted></_>
    <_>
      <rects>
        <_>
          5 7 8 10 -1.</_>
        <_>
          5 12 8 5 2.</_></rects>
      <tilted>0</tilted></_>
    <_>
      <rects>
        <_>
          5 8 6 6 -1.</_>
        <_>
          7 8 2 6 3.</_></rects>
      <tilted>0</tilted></_>
    <_>
      <rects>
        <_>
          5 13 12 2 -1.</_>
        <_>
          5 14 12 1 2.</_></rects>
      <tilted>0</tilted></_>
    <_>
      <rects>
        <_>
          5 14 9 2 -1.</_>
        <_>
          5 15 9 1 2.</_></rects>
      <tilted>0</tilted></_>
    <_>
      <rects>
        <_>
          5 15 4 2 -1.</_>
        <_>
          7 15 2 2 2.</_></rects>
      <tilted>0</tilted></_>
    <_>
      <rects>
        <_>
          5 16 7 4 -1.</_>
        <_>
          5 18 7 2 2.</_></rects>
      <tilted>0</tilted></_>
    <_>
      <rects>
        <_>
          6 3 1 12 -1.</_>
        <_>
          6 9 1 6 2.</_></rects>
      <tilted>0</tilted></_>
    <_>
      <rects>
        <_>
          6 3 7 12 -1.</_>
        <_>
          6 9 7 6 2.</_></rects>
      <tilted>0</tilted></_>
    <_>
      <rects>
        <_>
          6 3 9 14 -1.</_>
        <_>
          6 10 9 7 2.</_></rects>
      <tilted>0</tilted></_>
    <_>
      <rects>
        <_>
          6 4 1 12 -1.</_>
        <_>
          6 10 1 6 2.</_></rects>
      <tilted>0</tilted></_>
    <_>
      <rects>
        <_>
          6 4 2 6 -1.</_>
        <_>
          6 6 2 2 3.</_></rects>
      <tilted>0</tilted></_>
    <_>
      <rects>
        <_>
          6 4 4 6 -1.</_>
        <_>
          6 4 2 3 2.</_>
        <_>
          8 7 2 3 2.</_></rects>
      <tilted>0</tilted></_>
    <_>
      <rects>
        <_>
          6 4 2 12 -1.</_>
        <_>
          6 10 2 6 2.</_></rects>
      <tilted>0</tilted></_>
    <_>
      <rects>
        <_>
          6 4 3 2 -1.</_>
        <_>
          6 5 3 1 2.</_></rects>
      <tilted>0</tilted></_>
    <_>
      <rects>
        <_>
          6 4 4 3 -1.</_>
        <_>
          6 5 4 1 3.</_></rects>
      <tilted>0</tilted></_>
    <_>
      <rects>
        <_>
          6 4 7 14 -1.</_>
        <_>
          6 11 7 7 2.</_></rects>
      <tilted>0</tilted></_>
    <_>
      <rects>
        <_>
          6 4 9 4 -1.</_>
        <_>
          6 6 9 2 2.</_></rects>
      <tilted>0</tilted></_>
    <_>
      <rects>
        <_>
          6 5 2 2 -1.</_>
        <_>
          7 5 1 2 2.</_></rects>
      <tilted>0</tilted></_>
    <_>
      <rects>
        <_>
          6 5 4 3 -1.</_>
        <_>
          6 6 4 1 3.</_></rects>
      <tilted>0</tilted></_>
    <_>
      <rects>
        <_>
          6 5 9 4 -1.</_>
        <_>
          6 7 9 2 2.</_></rects>
      <tilted>0</tilted></_>
    <_>
      <rects>
        <_>
          6 7 12 5 -1.</_>
        <_>
          12 7 6 5 2.</_></rects>
      <tilted>0</tilted></_>
    <_>
      <rects>
        <_>
          6 7 10 10 -1.</_>
        <_>
          6 12 10 5 2.</_></rects>
      <tilted>0</tilted></_>
    <_>
      <rects>
        <_>
          6 8 9 3 -1.</_>
        <_>
          9 8 3 3 3.</_></rects>
      <tilted>0</tilted></_>
    <_>
      <rects>
        <_>
          6 12 1 4 -1.</_>
        <_>
          6 14 1 2 2.</_></rects>
      <tilted>0</tilted></_>
    <_>
      <rects>
        <_>
          6 13 8 3 -1.</_>
        <_>
          6 14 8 1 3.</_></rects>
      <tilted>0</tilted></_>
    <_>
      <rects>
        <_>
          7 3 1 9 -1.</_>
        <_>
          7 6 1 3 3.</_></rects>
      <tilted>0</tilted></_>
    <_>
      <rects>
        <_>
          7 3 2 4 -1.</_>
        <_>
          7 5 2 2 2.</_></rects>
      <tilted>0</tilted></_>
    <_>
      <rects>
        <_>
          7 4 2 4 -1.</_>
        <_>
          7 6 2 2 2.</_></rects>
      <tilted>0</tilted></_>
    <_>
      <rects>
        <_>
          7 4 6 4 -1.</_>
        <_>
          9 4 2 4 3.</_></rects>
      <tilted>0</tilted></_>
    <_>
      <rects>
        <_>
          7 4 8 12 -1.</_>
        <_>
          7 10 8 6 2.</_></rects>
      <tilted>0</tilted></_>
    <_>
      <rects>
        <_>
          7 4 9 6 -1.</_>
        <_>
          7 7 9 3 2.</_></rects>
      <tilted>0</tilted></_>
    <_>
      <rects>
        <_>
          7 5 10 4 -1.</_>
        <_>
          7 7 10 2 2.</_></rects>
      <tilted>0</tilted></_>
    <_>
      <rects>
        <_>
          7 8 4 5 -1.</_>
        <_>
          9 8 2 5 2.</_></rects>
      <tilted>0</tilted></_>
    <_>
      <rects>
        <_>
          7 9 4 9 -1.</_>
        <_>
          7 12 4 3 3.</_></rects>
      <tilted>0</tilted></_>
    <_>
      <rects>
        <_>
          7 9 10 6 -1.</_>
        <_>
          12 9 5 6 2.</_></rects>
      <tilted>0</tilted></_>
    <_>
      <rects>
        <_>
          7 9 7 6 -1.</_>
        <_>
          7 12 7 3 2.</_></rects>
      <tilted>0</tilted></_>
    <_>
      <rects>
        <_>
          7 13 2 4 -1.</_>
        <_>
          7 15 2 2 2.</_></rects>
      <tilted>0</tilted></_>
    <_>
      <rects>
        <_>
          7 13 6 3 -1.</_>
        <_>
          9 13 2 3 3.</_></rects>
      <tilted>0</tilted></_>
    <_>
      <rects>
        <_>
          7 13 7 2 -1.</_>
        <_>
          7 14 7 1 2.</_></rects>
      <tilted>0</tilted></_>
    <_>
      <rects>
        <_>
          7 16 6 4 -1.</_>
        <_>
          7 18 6 2 2.</_></rects>
      <tilted>0</tilted></_>
    <_>
      <rects>
        <_>
          7 16 11 4 -1.</_>
        <_>
          7 18 11 2 2.</_></rects>
      <tilted>0</tilted></_>
    <_>
      <rects>
        <_>
          8 0 7 4 -1.</_>
        <_>
          8 2 7 2 2.</_></rects>
      <tilted>0</tilted></_>
    <_>
      <rects>
        <_>
          8 0 8 4 -1.</_>
        <_>
          8 2 8 2 2.</_></rects>
      <tilted>0</tilted></_>
    <_>
      <rects>
        <_>
          8 4 7 6 -1.</_>
        <_>
          8 6 7 2 3.</_></rects>
      <tilted>0</tilted></_>
    <_>
      <rects>
        <_>
          8 5 8 10 -1.</_>
        <_>
          12 5 4 10 2.</_></rects>
      <tilted>0</tilted></_>
    <_>
      <rects>
        <_>
          8 6 1 6 -1.</_>
        <_>
          8 8 1 2 3.</_></rects>
      <tilted>0</tilted></_>
    <_>
      <rects>
        <_>
          8 11 8 4 -1.</_>
        <_>
          12 11 4 4 2.</_></rects>
      <tilted>0</tilted></_>
    <_>
      <rects>
        <_>
          8 12 2 5 -1.</_>
        <_>
          9 12 1 5 2.</_></rects>
      <tilted>0</tilted></_>
    <_>
      <rects>
        <_>
          9 0 3 3 -1.</_>
        <_>
          9 1 3 1 3.</_></rects>
      <tilted>0</tilted></_>
    <_>
      <rects>
        <_>
          9 1 2 3 -1.</_>
        <_>
          9 2 2 1 3.</_></rects>
      <tilted>0</tilted></_>
    <_>
      <rects>
        <_>
          9 6 2 9 -1.</_>
        <_>
          9 9 2 3 3.</_></rects>
      <tilted>0</tilted></_>
    <_>
      <rects>
        <_>
          9 7 9 4 -1.</_>
        <_>
          12 7 3 4 3.</_></rects>
      <tilted>0</tilted></_>
    <_>
      <rects>
        <_>
          9 9 3 2 -1.</_>
        <_>
          10 9 1 2 3.</_></rects>
      <tilted>0</tilted></_>
    <_>
      <rects>
        <_>
          9 12 3 2 -1.</_>
        <_>
          10 12 1 2 3.</_></rects>
      <tilted>0</tilted></_>
    <_>
      <rects>
        <_>
          9 12 3 5 -1.</_>
        <_>
          10 12 1 5 3.</_></rects>
      <tilted>0</tilted></_>
    <_>
      <rects>
        <_>
          9 17 2 3 -1.</_>
        <_>
          9 18 2 1 3.</_></rects>
      <tilted>0</tilted></_>
    <_>
      <rects>
        <_>
          10 0 2 3 -1.</_>
        <_>
          10 1 2 1 3.</_></rects>
      <tilted>0</tilted></_>
    <_>
      <rects>
        <_>
          10 0 2 4 -1.</_>
        <_>
          10 2 2 2 2.</_></rects>
      <tilted>0</tilted></_>
    <_>
      <rects>
        <_>
          10 5 6 10 -1.</_>
        <_>
          10 10 6 5 2.</_></rects>
      <tilted>0</tilted></_>
    <_>
      <rects>
        <_>
          10 9 2 4 -1.</_>
        <_>
          10 9 1 2 2.</_>
        <_>
          11 11 1 2 2.</_></rects>
      <tilted>0</tilted></_>
    <_>
      <rects>
        <_>
          10 14 6 1 -1.</_>
        <_>
          13 14 3 1 2.</_></rects>
      <tilted>0</tilted></_>
    <_>
      <rects>
        <_>
          11 4 8 10 -1.</_>
        <_>
          11 4 4 5 2.</_>
        <_>
          15 9 4 5 2.</_></rects>
      <tilted>0</tilted></_>
    <_>
      <rects>
        <_>
          11 6 4 4 -1.</_>
        <_>
          11 6 2 2 2.</_>
        <_>
          13 8 2 2 2.</_></rects>
      <tilted>0</tilted></_>
    <_>
      <rects>
        <_>
          11 8 2 2 -1.</_>
        <_>
          11 9 2 1 2.</_></rects>
      <tilted>0</tilted></_>
    <_>
      <rects>
        <_>
          11 9 1 3 -1.</_>
        <_>
          11 10 1 1 3.</_></rects>
      <tilted>0</tilted></_>
    <_>
      <rects>
        <_>
          11 12 2 1 -1.</_>
        <_>
          12 12 1 1 2.</_></rects>
      <tilted>0</tilted></_>
    <_>
      <rects>
        <_>
          11 12 2 4 -1.</_>
        <_>
          11 12 1 2 2.</_>
        <_>
          12 14 1 2 2.</_></rects>
      <tilted>0</tilted></_>
    <_>
      <rects>
        <_>
          11 12 2 2 -1.</_>
        <_>
          11 13 2 1 2.</_></rects>
      <tilted>0</tilted></_>
    <_>
      <rects>
        <_>
          11 14 4 2 -1.</_>
        <_>
          13 14 2 2 2.</_></rects>
      <tilted>0</tilted></_>
    <_>
      <rects>
        <_>
          12 7 4 7 -1.</_>
        <_>
          14 7 2 7 2.</_></rects>
      <tilted>0</tilted></_>
    <_>
      <rects>
        <_>
          12 7 6 7 -1.</_>
        <_>
          15 7 3 7 2.</_></rects>
      <tilted>0</tilted></_>
    <_>
      <rects>
        <_>
          12 8 2 2 -1.</_>
        <_>
          13 8 1 2 2.</_></rects>
      <tilted>0</tilted></_>
    <_>
      <rects>
        <_>
          12 11 3 1 -1.</_>
        <_>
          13 11 1 1 3.</_></rects>
      <tilted>0</tilted></_>
    <_>
      <rects>
        <_>
          12 12 2 1 -1.</_>
        <_>
          13 12 1 1 2.</_></rects>
      <tilted>0</tilted></_>
    <_>
      <rects>
        <_>
          12 12 2 4 -1.</_>
        <_>
          12 12 1 2 2.</_>
        <_>
          13 14 1 2 2.</_></rects>
      <tilted>0</tilted></_>
    <_>
      <rects>
        <_>
          13 4 2 4 -1.</_>
        <_>
          13 6 2 2 2.</_></rects>
      <tilted>0</tilted></_>
    <_>
      <rects>
        <_>
          13 5 2 4 -1.</_>
        <_>
          13 7 2 2 2.</_></rects>
      <tilted>0</tilted></_>
    <_>
      <rects>
        <_>
          13 7 4 3 -1.</_>
        <_>
          15 7 2 3 2.</_></rects>
      <tilted>0</tilted></_>
    <_>
      <rects>
        <_>
          13 7 4 7 -1.</_>
        <_>
          15 7 2 7 2.</_></rects>
      <tilted>0</tilted></_>
    <_>
      <rects>
        <_>
          14 4 1 4 -1.</_>
        <_>
          14 6 1 2 2.</_></rects>
      <tilted>0</tilted></_>
    <_>
      <rects>
        <_>
          14 4 1 6 -1.</_>
        <_>
          14 7 1 3 2.</_></rects>
      <tilted>0</tilted></_>
    <_>
      <rects>
        <_>
          14 4 2 4 -1.</_>
        <_>
          14 6 2 2 2.</_></rects>
      <tilted>0</tilted></_>
    <_>
      <rects>
        <_>
          14 5 2 2 -1.</_>
        <_>
          15 5 1 2 2.</_></rects>
      <tilted>0</tilted></_>
    <_>
      <rects>
        <_>
          14 5 1 6 -1.</_>
        <_>
          14 8 1 3 2.</_></rects>
      <tilted>0</tilted></_>
    <_>
      <rects>
        <_>
          14 5 1 12 -1.</_>
        <_>
          14 11 1 6 2.</_></rects>
      <tilted>0</tilted></_>
    <_>
      <rects>
        <_>
          14 5 2 9 -1.</_>
        <_>
          15 5 1 9 2.</_></rects>
      <tilted>0</tilted></_>
    <_>
      <rects>
        <_>
          14 5 4 2 -1.</_>
        <_>
          16 5 2 2 2.</_></rects>
      <tilted>0</tilted></_>
    <_>
      <rects>
        <_>
          14 6 4 3 -1.</_>
        <_>
          16 6 2 3 2.</_></rects>
      <tilted>0</tilted></_>
    <_>
      <rects>
        <_>
          14 14 3 4 -1.</_>
        <_>
          14 16 3 2 2.</_></rects>
      <tilted>0</tilted></_>
    <_>
      <rects>
        <_>
          16 8 4 6 -1.</_>
        <_>
          18 8 2 6 2.</_></rects>
      <tilted>0</tilted></_>
    <_>
      <rects>
        <_>
          18 7 2 8 -1.</_>
        <_>
          19 7 1 8 2.</_></rects>
      <tilted>0</tilted></_>
    <_>
      <rects>
        <_>
          18 8 2 6 -1.</_>
        <_>
          19 8 1 6 2.</_></rects>
      <tilted>0</tilted></_>
    <_>
      <rects>
        <_>
          18 9 2 3 -1.</_>
        <_>
          19 9 1 3 2.</_></rects>
      <tilted>0</tilted></_>
    <_>
      <rects>
        <_>
          18 11 2 2 -1.</_>
        <_>
          18 11 1 1 2.</_>
        <_>
          19 12 1 1 2.</_></rects>
      <tilted>0</tilted></_></features></cascade>
</opencv_storage>
