<?xml version="1.0"?>
<opencv_storage>
<cascade>
  <stageType>BOOST</stageType>
  <featureType>HAAR</featureType>
  <height>20</height>
  <width>20</width>
  <stageParams>
    <boostType>GAB</boostType>
    <minHitRate>9.9900001287460327e-01</minHitRate>
    <maxFalseAlarm>5.0000000000000000e-01</maxFalseAlarm>
    <weightTrimRate>9.4999999999999996e-01</weightTrimRate>
    <maxDepth>1</maxDepth>
    <maxWeakCount>100</maxWeakCount></stageParams>
  <featureParams>
    <maxCatCount>0</maxCatCount>
    <featSize>1</featSize>
    <mode>ALL</mode></featureParams>
  <stageNum>14</stageNum>
  <stages>
    <!-- stage 0 -->
    <_>
      <maxWeakCount>5</maxWeakCount>
      <stageThreshold>-1.2637405395507812e+00</stageThreshold>
      <weakClassifiers>
        <_>
          <internalNodes>
            0 -1 32 2.5487411022186279e-01</internalNodes>
          <leafValues>
            -5.6084173917770386e-01 8.0491042137145996e-01</leafValues></_>
        <_>
          <internalNodes>
            0 -1 34 4.8165973275899887e-03</internalNodes>
          <leafValues>
            -9.7865647077560425e-01 4.7645935416221619e-01</leafValues></_>
        <_>
          <internalNodes>
            0 -1 2 2.7003962546586990e-02</internalNodes>
          <leafValues>
            -5.3668731451034546e-01 6.3882529735565186e-01</leafValues></_>
        <_>
          <internalNodes>
            0 -1 80 3.5543232224881649e-03</internalNodes>
          <leafValues>
            3.9223131537437439e-01 -9.7407728433609009e-01</leafValues></_>
        <_>
          <internalNodes>
            0 -1 80 -6.3456897623836994e-04</internalNodes>
          <leafValues>
            -9.6257460117340088e-01 3.3140647411346436e-01</leafValues></_></weakClassifiers></_>
    <!-- stage 1 -->
    <_>
      <maxWeakCount>6</maxWeakCount>
      <stageThreshold>-1.1564821004867554e+00</stageThreshold>
      <weakClassifiers>
        <_>
          <internalNodes>
            0 -1 3 3.2960876822471619e-02</internalNodes>
          <leafValues>
            -6.0671937465667725e-01 7.6448363065719604e-01</leafValues></_>
        <_>
          <internalNodes>
            0 -1 36 -6.8903453648090363e-02</internalNodes>
          <leafValues>
            5.6761223077774048e-01 -6.4701062440872192e-01</leafValues></_>
        <_>
          <internalNodes>
            0 -1 59 9.4000855460762978e-03</internalNodes>
          <leafValues>
            3.6095723509788513e-01 -8.9952301979064941e-01</leafValues></_>
        <_>
          <internalNodes>
            0 -1 63 6.9696092396043241e-05</internalNodes>
          <leafValues>
            -9.9619418382644653e-01 2.6110100746154785e-01</leafValues></_>
        <_>
          <internalNodes>
            0 -1 65 4.1906327009201050e-02</internalNodes>
          <leafValues>
            -5.4263430833816528e-01 4.6148380637168884e-01</leafValues></_>
        <_>
          <internalNodes>
            0 -1 73 -4.3752631172537804e-03</internalNodes>
          <leafValues>
            -9.9897253513336182e-01 2.7418604493141174e-01</leafValues></_></weakClassifiers></_>
    <!-- stage 2 -->
    <_>
      <maxWeakCount>8</maxWeakCount>
      <stageThreshold>-1.3707802295684814e+00</stageThreshold>
      <weakClassifiers>
        <_>
          <internalNodes>
            0 -1 61 4.9007777124643326e-03</internalNodes>
          <leafValues>
            5.5544602870941162e-01 -9.2294222116470337e-01</leafValues></_>
        <_>
          <internalNodes>
            0 -1 19 7.7453836798667908e-02</internalNodes>
          <leafValues>
            -5.7237917184829712e-01 6.5703386068344116e-01</leafValues></_>
        <_>
          <internalNodes>
            0 -1 33 1.8193906871601939e-03</internalNodes>
          <leafValues>
            -9.5728087425231934e-01 3.0671277642250061e-01</leafValues></_>
        <_>
          <internalNodes>
            0 -1 136 -1.4863973483443260e-02</internalNodes>
          <leafValues>
            4.5420846343040466e-01 -5.6999880075454712e-01</leafValues></_>
        <_>
          <internalNodes>
            0 -1 117 1.0774751717690378e-04</internalNodes>
          <leafValues>
            -9.0812385082244873e-01 2.7741858363151550e-01</leafValues></_>
        <_>
          <internalNodes>
            0 -1 81 2.2268592147156596e-04</internalNodes>
          <leafValues>
            -8.9183187484741211e-01 2.1636311709880829e-01</leafValues></_>
        <_>
          <internalNodes>
            0 -1 74 8.0393385142087936e-03</internalNodes>
          <leafValues>
            2.7288225293159485e-01 -7.2007602453231812e-01</leafValues></_>
        <_>
          <internalNodes>
            0 -1 13 -1.8701650202274323e-02</internalNodes>
          <leafValues>
            6.4409571886062622e-01 -3.7883678078651428e-01</leafValues></_></weakClassifiers></_>
    <!-- stage 3 -->
    <_>
      <maxWeakCount>7</maxWeakCount>
      <stageThreshold>-8.8202780485153198e-01</stageThreshold>
      <weakClassifiers>
        <_>
          <internalNodes>
            0 -1 23 -1.2400787323713303e-02</internalNodes>
          <leafValues>
            6.6540402173995972e-01 -4.4685038924217224e-01</leafValues></_>
        <_>
          <internalNodes>
            0 -1 67 7.6688267290592194e-03</internalNodes>
          <leafValues>
            3.3333930373191833e-01 -9.4185507297515869e-01</leafValues></_>
        <_>
          <internalNodes>
            0 -1 67 -2.3613511584699154e-03</internalNodes>
          <leafValues>
            -9.0035611391067505e-01 3.0397489666938782e-01</leafValues></_>
        <_>
          <internalNodes>
            0 -1 26 2.3320186883211136e-02</internalNodes>
          <leafValues>
            -4.9191436171531677e-01 6.2399744987487793e-01</leafValues></_>
        <_>
          <internalNodes>
            0 -1 131 5.2453984972089529e-04</internalNodes>
          <leafValues>
            -9.6232897043228149e-01 2.5505423545837402e-01</leafValues></_>
        <_>
          <internalNodes>
            0 -1 52 3.4592512529343367e-03</internalNodes>
          <leafValues>
            -8.5214537382125854e-01 2.1786557137966156e-01</leafValues></_>
        <_>
          <internalNodes>
            0 -1 35 -1.3342144666239619e-03</internalNodes>
          <leafValues>
            -7.8849780559539795e-01 2.2169739007949829e-01</leafValues></_></weakClassifiers></_>
    <!-- stage 4 -->
    <_>
      <maxWeakCount>7</maxWeakCount>
      <stageThreshold>-6.8379956483840942e-01</stageThreshold>
      <weakClassifiers>
        <_>
          <internalNodes>
            0 -1 42 8.5567766800522804e-03</internalNodes>
          <leafValues>
            4.7686496376991272e-01 -8.5062241554260254e-01</leafValues></_>
        <_>
          <internalNodes>
            0 -1 7 3.6300909705460072e-03</internalNodes>
          <leafValues>
            -4.8361337184906006e-01 6.0513389110565186e-01</leafValues></_>
        <_>
          <internalNodes>
            0 -1 103 1.2863229960203171e-02</internalNodes>
          <leafValues>
            -5.9795868396759033e-01 4.1742447018623352e-01</leafValues></_>
        <_>
          <internalNodes>
            0 -1 43 1.8537365831434727e-03</internalNodes>
          <leafValues>
            -9.4559937715530396e-01 2.8245490789413452e-01</leafValues></_>
        <_>
          <internalNodes>
            0 -1 1 2.5357041507959366e-02</internalNodes>
          <leafValues>
            -4.2161437869071960e-01 5.8191651105880737e-01</leafValues></_>
        <_>
          <internalNodes>
            0 -1 113 -2.6356504531577229e-04</internalNodes>
          <leafValues>
            -9.1800647974014282e-01 1.8207234144210815e-01</leafValues></_>
        <_>
          <internalNodes>
            0 -1 86 5.2833638619631529e-04</internalNodes>
          <leafValues>
            2.1924512088298798e-01 -8.1343203783035278e-01</leafValues></_></weakClassifiers></_>
    <!-- stage 5 -->
    <_>
      <maxWeakCount>9</maxWeakCount>
      <stageThreshold>-1.6628496646881104e+00</stageThreshold>
      <weakClassifiers>
        <_>
          <internalNodes>
            0 -1 39 1.4177836477756500e-02</internalNodes>
          <leafValues>
            -6.4945226907730103e-01 5.1759308576583862e-01</leafValues></_>
        <_>
          <internalNodes>
            0 -1 62 6.2883622013032436e-04</internalNodes>
          <leafValues>
            -9.3224227428436279e-01 2.7566561102867126e-01</leafValues></_>
        <_>
          <internalNodes>
            0 -1 12 -1.4680683612823486e-02</internalNodes>
          <leafValues>
            6.3275563716888428e-01 -3.8127267360687256e-01</leafValues></_>
        <_>
          <internalNodes>
            0 -1 125 4.9948915839195251e-03</internalNodes>
          <leafValues>
            2.4685473740100861e-01 -8.4183424711227417e-01</leafValues></_>
        <_>
          <internalNodes>
            0 -1 128 -6.3117375248111784e-05</internalNodes>
          <leafValues>
            2.2035439312458038e-01 -7.2814315557479858e-01</leafValues></_>
        <_>
          <internalNodes>
            0 -1 75 1.8499724101275206e-03</internalNodes>
          <leafValues>
            1.7896389961242676e-01 -8.6522459983825684e-01</leafValues></_>
        <_>
          <internalNodes>
            0 -1 122 -1.3678155664820224e-04</internalNodes>
          <leafValues>
            2.2544930875301361e-01 -7.4994730949401855e-01</leafValues></_>
        <_>
          <internalNodes>
            0 -1 93 5.7362606748938560e-03</internalNodes>
          <leafValues>
            -4.2943945527076721e-01 4.7467079758644104e-01</leafValues></_>
        <_>
          <internalNodes>
            0 -1 47 -1.4381608925759792e-02</internalNodes>
          <leafValues>
            5.8072495460510254e-01 -3.7457662820816040e-01</leafValues></_></weakClassifiers></_>
    <!-- stage 6 -->
    <_>
      <maxWeakCount>10</maxWeakCount>
      <stageThreshold>-1.5838689804077148e+00</stageThreshold>
      <weakClassifiers>
        <_>
          <internalNodes>
            0 -1 130 -1.3955798931419849e-03</internalNodes>
          <leafValues>
            4.6564885973930359e-01 -7.4603176116943359e-01</leafValues></_>
        <_>
          <internalNodes>
            0 -1 4 9.2112552374601364e-03</internalNodes>
          <leafValues>
            -5.6829172372817993e-01 3.8805630803108215e-01</leafValues></_>
        <_>
          <internalNodes>
            0 -1 83 8.1544814747758210e-05</internalNodes>
          <leafValues>
            -9.0188360214233398e-01 2.2944280505180359e-01</leafValues></_>
        <_>
          <internalNodes>
            0 -1 139 -6.1255367472767830e-03</internalNodes>
          <leafValues>
            5.2469813823699951e-01 -3.8355088233947754e-01</leafValues></_>
        <_>
          <internalNodes>
            0 -1 96 3.8285879418253899e-04</internalNodes>
          <leafValues>
            2.5843554735183716e-01 -7.0451086759567261e-01</leafValues></_>
        <_>
          <internalNodes>
            0 -1 89 -3.6443329008761793e-05</internalNodes>
          <leafValues>
            2.7051475644111633e-01 -7.0132082700729370e-01</leafValues></_>
        <_>
          <internalNodes>
            0 -1 87 1.0982890380546451e-03</internalNodes>
          <leafValues>
            -7.1789634227752686e-01 2.2647082805633545e-01</leafValues></_>
        <_>
          <internalNodes>
            0 -1 44 2.7817343361675739e-03</internalNodes>
          <leafValues>
            -9.8558920621871948e-01 1.4782758057117462e-01</leafValues></_>
        <_>
          <internalNodes>
            0 -1 49 1.4587666839361191e-02</internalNodes>
          <leafValues>
            -3.7365683913230896e-01 5.0895607471466064e-01</leafValues></_>
        <_>
          <internalNodes>
            0 -1 120 1.4737034216523170e-03</internalNodes>
          <leafValues>
            -6.4502924680709839e-01 2.7444460988044739e-01</leafValues></_></weakClassifiers></_>
    <!-- stage 7 -->
    <_>
      <maxWeakCount>12</maxWeakCount>
      <stageThreshold>-1.3217940330505371e+00</stageThreshold>
      <weakClassifiers>
        <_>
          <internalNodes>
            0 -1 43 9.1547705233097076e-03</internalNodes>
          <leafValues>
            4.3962705135345459e-01 -7.5384616851806641e-01</leafValues></_>
        <_>
          <internalNodes>
            0 -1 26 2.8897363692522049e-02</internalNodes>
          <leafValues>
            -3.3282929658889771e-01 6.1806917190551758e-01</leafValues></_>
        <_>
          <internalNodes>
            0 -1 38 9.4577549025416374e-03</internalNodes>
          <leafValues>
            -4.2407333850860596e-01 4.0520557761192322e-01</leafValues></_>
        <_>
          <internalNodes>
            0 -1 46 6.3758000032976270e-04</internalNodes>
          <leafValues>
            -9.6516466140747070e-01 2.0587164163589478e-01</leafValues></_>
        <_>
          <internalNodes>
            0 -1 144 -5.0058029592037201e-03</internalNodes>
          <leafValues>
            3.7373524904251099e-01 -4.1819906234741211e-01</leafValues></_>
        <_>
          <internalNodes>
            0 -1 108 7.1515576564706862e-05</internalNodes>
          <leafValues>
            -7.0504564046859741e-01 2.1378441154956818e-01</leafValues></_>
        <_>
          <internalNodes>
            0 -1 31 -2.2039826959371567e-02</internalNodes>
          <leafValues>
            5.8734971284866333e-01 -3.2714200019836426e-01</leafValues></_>
        <_>
          <internalNodes>
            0 -1 67 5.7435929775238037e-03</internalNodes>
          <leafValues>
            2.6484328508377075e-01 -8.4754812717437744e-01</leafValues></_>
        <_>
          <internalNodes>
            0 -1 66 1.9496459513902664e-02</internalNodes>
          <leafValues>
            -3.2388678193092346e-01 5.5328530073165894e-01</leafValues></_>
        <_>
          <internalNodes>
            0 -1 89 -3.8902024243725464e-05</internalNodes>
          <leafValues>
            2.6728305220603943e-01 -6.0736840963363647e-01</leafValues></_>
        <_>
          <internalNodes>
            0 -1 6 1.9025760702788830e-03</internalNodes>
          <leafValues>
            -4.2642229795455933e-01 3.9733132719993591e-01</leafValues></_>
        <_>
          <internalNodes>
            0 -1 91 -3.1798254349268973e-04</internalNodes>
          <leafValues>
            -9.2099153995513916e-01 1.8416041135787964e-01</leafValues></_></weakClassifiers></_>
    <!-- stage 8 -->
    <_>
      <maxWeakCount>12</maxWeakCount>
      <stageThreshold>-1.3019962310791016e+00</stageThreshold>
      <weakClassifiers>
        <_>
          <internalNodes>
            0 -1 25 5.1403315737843513e-03</internalNodes>
          <leafValues>
            -3.9427313208580017e-01 5.6619387865066528e-01</leafValues></_>
        <_>
          <internalNodes>
            0 -1 143 3.4548185765743256e-02</internalNodes>
          <leafValues>
            -2.5648683309555054e-01 6.0062187910079956e-01</leafValues></_>
        <_>
          <internalNodes>
            0 -1 69 7.1370578370988369e-04</internalNodes>
          <leafValues>
            -8.1347572803497314e-01 2.1250149607658386e-01</leafValues></_>
        <_>
          <internalNodes>
            0 -1 15 -3.9096451364457607e-03</internalNodes>
          <leafValues>
            4.5193949341773987e-01 -3.3911341428756714e-01</leafValues></_>
        <_>
          <internalNodes>
            0 -1 79 -1.0130346054211259e-03</internalNodes>
          <leafValues>
            -9.5190161466598511e-01 1.5739031136035919e-01</leafValues></_>
        <_>
          <internalNodes>
            0 -1 100 -5.1016570068895817e-05</internalNodes>
          <leafValues>
            2.8939554095268250e-01 -5.4891610145568848e-01</leafValues></_>
        <_>
          <internalNodes>
            0 -1 80 3.6281498614698648e-03</internalNodes>
          <leafValues>
            1.6617695987224579e-01 -9.3437796831130981e-01</leafValues></_>
        <_>
          <internalNodes>
            0 -1 0 2.8604352846741676e-02</internalNodes>
          <leafValues>
            -3.8058775663375854e-01 3.7738379836082458e-01</leafValues></_>
        <_>
          <internalNodes>
            0 -1 127 1.3026353553868830e-04</internalNodes>
          <leafValues>
            -9.0781593322753906e-01 1.3903519511222839e-01</leafValues></_>
        <_>
          <internalNodes>
            0 -1 138 3.5980952088721097e-04</internalNodes>
          <leafValues>
            -4.5449417829513550e-01 2.6624312996864319e-01</leafValues></_>
        <_>
          <internalNodes>
            0 -1 92 3.2466812990605831e-04</internalNodes>
          <leafValues>
            1.2322951853275299e-01 -8.7551206350326538e-01</leafValues></_>
        <_>
          <internalNodes>
            0 -1 88 1.0088155977427959e-03</internalNodes>
          <leafValues>
            -4.6601393818855286e-01 2.7354165911674500e-01</leafValues></_></weakClassifiers></_>
    <!-- stage 9 -->
    <_>
      <maxWeakCount>14</maxWeakCount>
      <stageThreshold>-1.5699907541275024e+00</stageThreshold>
      <weakClassifiers>
        <_>
          <internalNodes>
            0 -1 135 8.8793374598026276e-03</internalNodes>
          <leafValues>
            -2.8955224156379700e-01 5.5862069129943848e-01</leafValues></_>
        <_>
          <internalNodes>
            0 -1 17 7.5231408700346947e-03</internalNodes>
          <leafValues>
            -4.7863286733627319e-01 3.5435870289802551e-01</leafValues></_>
        <_>
          <internalNodes>
            0 -1 28 -1.3926262035965919e-02</internalNodes>
          <leafValues>
            5.7922136783599854e-01 -2.4110762774944305e-01</leafValues></_>
        <_>
          <internalNodes>
            0 -1 77 3.3289199927821755e-04</internalNodes>
          <leafValues>
            -5.9515243768692017e-01 2.5477409362792969e-01</leafValues></_>
        <_>
          <internalNodes>
            0 -1 48 -7.2722174227237701e-03</internalNodes>
          <leafValues>
            5.1849675178527832e-01 -3.0606365203857422e-01</leafValues></_>
        <_>
          <internalNodes>
            0 -1 106 -1.1752852151403204e-04</internalNodes>
          <leafValues>
            -7.7384144067764282e-01 2.2949588298797607e-01</leafValues></_>
        <_>
          <internalNodes>
            0 -1 64 6.6043743863701820e-03</internalNodes>
          <leafValues>
            -3.0043131113052368e-01 4.9593374133110046e-01</leafValues></_>
        <_>
          <internalNodes>
            0 -1 9 1.8596830777823925e-03</internalNodes>
          <leafValues>
            -3.5314932465553284e-01 3.9473110437393188e-01</leafValues></_>
        <_>
          <internalNodes>
            0 -1 99 1.5557459555566311e-03</internalNodes>
          <leafValues>
            1.6900093853473663e-01 -8.3525079488754272e-01</leafValues></_>
        <_>
          <internalNodes>
            0 -1 54 3.3188681118190289e-03</internalNodes>
          <leafValues>
            -7.1468532085418701e-01 1.5086992084980011e-01</leafValues></_>
        <_>
          <internalNodes>
            0 -1 57 1.1281699873507023e-02</internalNodes>
          <leafValues>
            1.4981628954410553e-01 -7.6896095275878906e-01</leafValues></_>
        <_>
          <internalNodes>
            0 -1 112 2.5117961922660470e-04</internalNodes>
          <leafValues>
            -4.2003032565116882e-01 2.9782927036285400e-01</leafValues></_>
        <_>
          <internalNodes>
            0 -1 55 1.5734551707282662e-03</internalNodes>
          <leafValues>
            -4.7266080975532532e-01 3.1968805193901062e-01</leafValues></_>
        <_>
          <internalNodes>
            0 -1 121 -5.3694541566073895e-04</internalNodes>
          <leafValues>
            4.2583426833152771e-01 -3.8407617807388306e-01</leafValues></_></weakClassifiers></_>
    <!-- stage 10 -->
    <_>
      <maxWeakCount>15</maxWeakCount>
      <stageThreshold>-1.4158368110656738e+00</stageThreshold>
      <weakClassifiers>
        <_>
          <internalNodes>
            0 -1 21 -2.5781560689210892e-03</internalNodes>
          <leafValues>
            5.7076412439346313e-01 -2.3652967810630798e-01</leafValues></_>
        <_>
          <internalNodes>
            0 -1 61 3.0584963969886303e-03</internalNodes>
          <leafValues>
            2.3730610311031342e-01 -7.1366143226623535e-01</leafValues></_>
        <_>
          <internalNodes>
            0 -1 118 4.5177392894402146e-04</internalNodes>
          <leafValues>
            -7.7574682235717773e-01 2.1590821444988251e-01</leafValues></_>
        <_>
          <internalNodes>
            0 -1 133 6.7734709009528160e-03</internalNodes>
          <leafValues>
            -3.4297540783882141e-01 4.5148336887359619e-01</leafValues></_>
        <_>
          <internalNodes>
            0 -1 96 -5.6231147027574480e-05</internalNodes>
          <leafValues>
            3.0545771121978760e-01 -4.2503654956817627e-01</leafValues></_>
        <_>
          <internalNodes>
            0 -1 111 -2.3141151177696884e-04</internalNodes>
          <leafValues>
            -9.5953154563903809e-01 8.5765860974788666e-02</leafValues></_>
        <_>
          <internalNodes>
            0 -1 101 -2.2637825459241867e-03</internalNodes>
          <leafValues>
            2.8631797432899475e-01 -4.0917572379112244e-01</leafValues></_>
        <_>
          <internalNodes>
            0 -1 11 1.5731528401374817e-02</internalNodes>
          <leafValues>
            -5.6279796361923218e-01 2.6905414462089539e-01</leafValues></_>
        <_>
          <internalNodes>
            0 -1 29 3.5978700034320354e-03</internalNodes>
          <leafValues>
            -2.5433406233787537e-01 5.2785950899124146e-01</leafValues></_>
        <_>
          <internalNodes>
            0 -1 20 7.0945220068097115e-03</internalNodes>
          <leafValues>
            -2.4666690826416016e-01 5.0960838794708252e-01</leafValues></_>
        <_>
          <internalNodes>
            0 -1 56 -5.5192010477185249e-03</internalNodes>
          <leafValues>
            -8.5154956579208374e-01 1.5473057329654694e-01</leafValues></_>
        <_>
          <internalNodes>
            0 -1 78 1.4367481693625450e-02</internalNodes>
          <leafValues>
            -2.9246416687965393e-01 3.9212143421173096e-01</leafValues></_>
        <_>
          <internalNodes>
            0 -1 14 -6.0398681089282036e-03</internalNodes>
          <leafValues>
            3.3491471409797668e-01 -3.6050641536712646e-01</leafValues></_>
        <_>
          <internalNodes>
            0 -1 16 1.1833405587822199e-03</internalNodes>
          <leafValues>
            -4.2124947905540466e-01 2.9043632745742798e-01</leafValues></_>
        <_>
          <internalNodes>
            0 -1 123 -7.0227892138063908e-04</internalNodes>
          <leafValues>
            1.4865574240684509e-01 -7.8428107500076294e-01</leafValues></_></weakClassifiers></_>
    <!-- stage 11 -->
    <_>
      <maxWeakCount>18</maxWeakCount>
      <stageThreshold>-1.2023792266845703e+00</stageThreshold>
      <weakClassifiers>
        <_>
          <internalNodes>
            0 -1 18 3.2919289078563452e-03</internalNodes>
          <leafValues>
            -2.7395933866500854e-01 5.6349712610244751e-01</leafValues></_>
        <_>
          <internalNodes>
            0 -1 40 4.7095357440412045e-03</internalNodes>
          <leafValues>
            2.8355312347412109e-01 -5.6977427005767822e-01</leafValues></_>
        <_>
          <internalNodes>
            0 -1 72 6.3502986449748278e-04</internalNodes>
          <leafValues>
            -7.9863625764846802e-01 1.4323511719703674e-01</leafValues></_>
        <_>
          <internalNodes>
            0 -1 58 -3.4142185468226671e-03</internalNodes>
          <leafValues>
            -9.7630816698074341e-01 9.9920377135276794e-02</leafValues></_>
        <_>
          <internalNodes>
            0 -1 124 2.9936356004327536e-03</internalNodes>
          <leafValues>
            -3.5299259424209595e-01 3.7983557581901550e-01</leafValues></_>
        <_>
          <internalNodes>
            0 -1 82 3.9133464451879263e-04</internalNodes>
          <leafValues>
            -8.7635600566864014e-01 1.2769886851310730e-01</leafValues></_>
        <_>
          <internalNodes>
            0 -1 84 1.2469016946852207e-03</internalNodes>
          <leafValues>
            1.9906991720199585e-01 -5.4959523677825928e-01</leafValues></_>
        <_>
          <internalNodes>
            0 -1 76 6.0783501248806715e-04</internalNodes>
          <leafValues>
            -9.2487406730651855e-01 9.1735363006591797e-02</leafValues></_>
        <_>
          <internalNodes>
            0 -1 85 -5.6213062634924427e-05</internalNodes>
          <leafValues>
            2.8978013992309570e-01 -3.8549089431762695e-01</leafValues></_>
        <_>
          <internalNodes>
            0 -1 51 1.4410428702831268e-03</internalNodes>
          <leafValues>
            -4.3221390247344971e-01 2.6122733950614929e-01</leafValues></_>
        <_>
          <internalNodes>
            0 -1 37 -3.5642317379824817e-04</internalNodes>
          <leafValues>
            -7.7436727285385132e-01 1.9589377939701080e-01</leafValues></_>
        <_>
          <internalNodes>
            0 -1 70 1.5354717615991831e-03</internalNodes>
          <leafValues>
            1.1607277393341064e-01 -8.1552988290786743e-01</leafValues></_>
        <_>
          <internalNodes>
            0 -1 107 3.7189415888860822e-04</internalNodes>
          <leafValues>
            -3.3545431494712830e-01 3.4172919392585754e-01</leafValues></_>
        <_>
          <internalNodes>
            0 -1 110 -4.0753399953246117e-03</internalNodes>
          <leafValues>
            7.7100026607513428e-01 -2.1158911287784576e-01</leafValues></_>
        <_>
          <internalNodes>
            0 -1 68 -4.0011061355471611e-03</internalNodes>
          <leafValues>
            -9.4087308645248413e-01 1.5940314531326294e-01</leafValues></_>
        <_>
          <internalNodes>
            0 -1 141 6.2543450621888041e-04</internalNodes>
          <leafValues>
            -4.0894573926925659e-01 2.6298421621322632e-01</leafValues></_>
        <_>
          <internalNodes>
            0 -1 5 -1.0838417802006006e-03</internalNodes>
          <leafValues>
            3.6297127604484558e-01 -3.2336798310279846e-01</leafValues></_>
        <_>
          <internalNodes>
            0 -1 27 -1.9907837267965078e-03</internalNodes>
          <leafValues>
            6.1921364068984985e-01 -1.8898418545722961e-01</leafValues></_></weakClassifiers></_>
    <!-- stage 12 -->
    <_>
      <maxWeakCount>17</maxWeakCount>
      <stageThreshold>-1.1912794113159180e+00</stageThreshold>
      <weakClassifiers>
        <_>
          <internalNodes>
            0 -1 10 -7.0568704977631569e-03</internalNodes>
          <leafValues>
            6.2356543540954590e-01 -1.6627997159957886e-01</leafValues></_>
        <_>
          <internalNodes>
            0 -1 22 4.0608104318380356e-03</internalNodes>
          <leafValues>
            -5.1503646373748779e-01 2.8298243880271912e-01</leafValues></_>
        <_>
          <internalNodes>
            0 -1 132 8.3152828738093376e-03</internalNodes>
          <leafValues>
            -2.8984695672988892e-01 4.3457970023155212e-01</leafValues></_>
        <_>
          <internalNodes>
            0 -1 97 1.8532475223764777e-04</internalNodes>
          <leafValues>
            2.0536701381206512e-01 -6.3649612665176392e-01</leafValues></_>
        <_>
          <internalNodes>
            0 -1 102 3.8708031177520752e-02</internalNodes>
          <leafValues>
            -2.9478651285171509e-01 4.0042206645011902e-01</leafValues></_>
        <_>
          <internalNodes>
            0 -1 140 -2.5814540684223175e-02</internalNodes>
          <leafValues>
            5.2740842103958130e-01 -2.4895240366458893e-01</leafValues></_>
        <_>
          <internalNodes>
            0 -1 95 5.0893704610643908e-05</internalNodes>
          <leafValues>
            -4.8054641485214233e-01 2.4713039398193359e-01</leafValues></_>
        <_>
          <internalNodes>
            0 -1 98 1.1754558654502034e-03</internalNodes>
          <leafValues>
            -4.4817435741424561e-01 3.0873998999595642e-01</leafValues></_>
        <_>
          <internalNodes>
            0 -1 45 -5.5668167769908905e-03</internalNodes>
          <leafValues>
            6.8151187896728516e-01 -2.1390891075134277e-01</leafValues></_>
        <_>
          <internalNodes>
            0 -1 94 -2.8211586177349091e-03</internalNodes>
          <leafValues>
            -8.7827986478805542e-01 1.5905092656612396e-01</leafValues></_>
        <_>
          <internalNodes>
            0 -1 142 1.3467018725350499e-03</internalNodes>
          <leafValues>
            -2.8618395328521729e-01 3.7555637955665588e-01</leafValues></_>
        <_>
          <internalNodes>
            0 -1 145 -5.6475922465324402e-03</internalNodes>
          <leafValues>
            4.1090756654739380e-01 -2.4901625514030457e-01</leafValues></_>
        <_>
          <internalNodes>
            0 -1 105 -1.6461877385154366e-04</internalNodes>
          <leafValues>
            -5.5868285894393921e-01 1.9901083409786224e-01</leafValues></_>
        <_>
          <internalNodes>
            0 -1 71 2.4947461206465960e-03</internalNodes>
          <leafValues>
            -2.9201009869575500e-01 4.0035310387611389e-01</leafValues></_>
        <_>
          <internalNodes>
            0 -1 126 -2.1835110601386987e-05</internalNodes>
          <leafValues>
            -8.2624185085296631e-01 1.2182901054620743e-01</leafValues></_>
        <_>
          <internalNodes>
            0 -1 104 -3.5550384200178087e-04</internalNodes>
          <leafValues>
            5.9800744056701660e-01 -2.0873007178306580e-01</leafValues></_>
        <_>
          <internalNodes>
            0 -1 90 4.0021805034484714e-05</internalNodes>
          <leafValues>
            -3.9336529374122620e-01 4.0009701251983643e-01</leafValues></_></weakClassifiers></_>
    <!-- stage 13 -->
    <_>
      <maxWeakCount>17</maxWeakCount>
      <stageThreshold>-1.2955003976821899e+00</stageThreshold>
      <weakClassifiers>
        <_>
          <internalNodes>
            0 -1 24 1.1438480578362942e-02</internalNodes>
          <leafValues>
            4.8446491360664368e-01 -2.8074246644973755e-01</leafValues></_>
        <_>
          <internalNodes>
            0 -1 115 6.6357525065541267e-03</internalNodes>
          <leafValues>
            -5.5109518766403198e-01 2.8536283969879150e-01</leafValues></_>
        <_>
          <internalNodes>
            0 -1 50 1.2427218258380890e-02</internalNodes>
          <leafValues>
            -2.1319155395030975e-01 5.6036961078643799e-01</leafValues></_>
        <_>
          <internalNodes>
            0 -1 30 -1.3935156166553497e-02</internalNodes>
          <leafValues>
            3.4999579191207886e-01 -3.2566317915916443e-01</leafValues></_>
        <_>
          <internalNodes>
            0 -1 41 2.4544638581573963e-03</internalNodes>
          <leafValues>
            -9.3911141157150269e-01 1.2281449139118195e-01</leafValues></_>
        <_>
          <internalNodes>
            0 -1 119 -3.8633127696812153e-03</internalNodes>
          <leafValues>
            3.8885986804962158e-01 -3.0248481035232544e-01</leafValues></_>
        <_>
          <internalNodes>
            0 -1 134 1.5849235933274031e-03</internalNodes>
          <leafValues>
            -2.1798172593116760e-01 4.9310457706451416e-01</leafValues></_>
        <_>
          <internalNodes>
            0 -1 90 1.6132689779624343e-04</internalNodes>
          <leafValues>
            1.3969255983829498e-01 -7.1014595031738281e-01</leafValues></_>
        <_>
          <internalNodes>
            0 -1 137 7.8667298657819629e-04</internalNodes>
          <leafValues>
            1.3898518681526184e-01 -6.5209609270095825e-01</leafValues></_>
        <_>
          <internalNodes>
            0 -1 129 1.5230601653456688e-02</internalNodes>
          <leafValues>
            -2.9811841249465942e-01 3.7135860323905945e-01</leafValues></_>
        <_>
          <internalNodes>
            0 -1 109 1.9342472660355270e-04</internalNodes>
          <leafValues>
            -5.5960589647293091e-01 1.8542248010635376e-01</leafValues></_>
        <_>
          <internalNodes>
            0 -1 8 4.1921688243746758e-03</internalNodes>
          <leafValues>
            -2.6995742321014404e-01 3.6432072520256042e-01</leafValues></_>
        <_>
          <internalNodes>
            0 -1 53 3.5246754996478558e-03</internalNodes>
          <leafValues>
            1.1093798279762268e-01 -9.5267957448959351e-01</leafValues></_>
        <_>
          <internalNodes>
            0 -1 114 8.2184065831825137e-04</internalNodes>
          <leafValues>
            -3.3341619372367859e-01 3.5018771886825562e-01</leafValues></_>
        <_>
          <internalNodes>
            0 -1 60 1.1816031765192747e-03</internalNodes>
          <leafValues>
            -3.5507392883300781e-01 4.3935069441795349e-01</leafValues></_>
        <_>
          <internalNodes>
            0 -1 96 1.0244382428936660e-04</internalNodes>
          <leafValues>
            2.9754382371902466e-01 -5.4955005645751953e-01</leafValues></_>
        <_>
          <internalNodes>
            0 -1 116 1.8335817730985582e-04</internalNodes>
          <leafValues>
            -4.5251128077507019e-01 2.1550683677196503e-01</leafValues></_></weakClassifiers></_></stages>
  <features>
    <_>
      <rects>
        <_>
          0 0 6 12 -1.</_>
        <_>
          0 0 3 6 2.</_>
        <_>
          3 6 3 6 2.</_></rects>
      <tilted>0</tilted></_>
    <_>
      <rects>
        <_>
          0 0 8 6 -1.</_>
        <_>
          0 0 4 3 2.</_>
        <_>
          4 3 4 3 2.</_></rects>
      <tilted>0</tilted></_>
    <_>
      <rects>
        <_>
          0 5 4 10 -1.</_>
        <_>
          2 5 2 10 2.</_></rects>
      <tilted>0</tilted></_>
    <_>
      <rects>
        <_>
          0 5 6 10 -1.</_>
        <_>
          3 5 3 10 2.</_></rects>
      <tilted>0</tilted></_>
    <_>
      <rects>
        <_>
          0 6 8 6 -1.</_>
        <_>
          2 6 4 6 2.</_></rects>
      <tilted>0</tilted></_>
    <_>
      <rects>
        <_>
          0 6 10 2 -1.</_>
        <_>
          0 6 5 1 2.</_>
        <_>
          5 7 5 1 2.</_></rects>
      <tilted>0</tilted></_>
    <_>
      <rects>
        <_>
          0 7 6 1 -1.</_>
        <_>
          2 7 2 1 3.</_></rects>
      <tilted>0</tilted></_>
    <_>
      <rects>
        <_>
          0 8 4 4 -1.</_>
        <_>
          1 8 2 4 2.</_></rects>
      <tilted>0</tilted></_>
    <_>
      <rects>
        <_>
          0 8 3 5 -1.</_>
        <_>
          1 8 1 5 3.</_></rects>
      <tilted>0</tilted></_>
    <_>
      <rects>
        <_>
          0 9 3 2 -1.</_>
        <_>
          1 9 1 2 3.</_></rects>
      <tilted>0</tilted></_>
    <_>
      <rects>
        <_>
          0 10 2 10 -1.</_>
        <_>
          0 10 1 5 2.</_>
        <_>
          1 15 1 5 2.</_></rects>
      <tilted>0</tilted></_>
    <_>
      <rects>
        <_>
          0 12 15 3 -1.</_>
        <_>
          5 13 5 1 9.</_></rects>
      <tilted>0</tilted></_>
    <_>
      <rects>
        <_>
          0 14 4 6 -1.</_>
        <_>
          0 14 2 3 2.</_>
        <_>
          2 17 2 3 2.</_></rects>
      <tilted>0</tilted></_>
    <_>
      <rects>
        <_>
          0 14 6 6 -1.</_>
        <_>
          0 14 3 3 2.</_>
        <_>
          3 17 3 3 2.</_></rects>
      <tilted>0</tilted></_>
    <_>
      <rects>
        <_>
          1 0 8 1 -1.</_>
        <_>
          3 2 4 1 2.</_></rects>
      <tilted>1</tilted></_>
    <_>
      <rects>
        <_>
          1 4 4 6 -1.</_>
        <_>
          1 4 2 3 2.</_>
        <_>
          3 7 2 3 2.</_></rects>
      <tilted>0</tilted></_>
    <_>
      <rects>
        <_>
          1 7 3 6 -1.</_>
        <_>
          2 7 1 6 3.</_></rects>
      <tilted>0</tilted></_>
    <_>
      <rects>
        <_>
          1 11 8 6 -1.</_>
        <_>
          3 11 4 6 2.</_></rects>
      <tilted>0</tilted></_>
    <_>
      <rects>
        <_>
          1 13 12 4 -1.</_>
        <_>
          1 13 6 2 2.</_>
        <_>
          7 15 6 2 2.</_></rects>
      <tilted>0</tilted></_>
    <_>
      <rects>
        <_>
          2 1 3 18 -1.</_>
        <_>
          2 7 3 6 3.</_></rects>
      <tilted>0</tilted></_>
    <_>
      <rects>
        <_>
          2 2 3 6 -1.</_>
        <_>
          2 4 3 2 3.</_></rects>
      <tilted>0</tilted></_>
    <_>
      <rects>
        <_>
          2 3 4 8 -1.</_>
        <_>
          2 3 2 4 2.</_>
        <_>
          4 7 2 4 2.</_></rects>
      <tilted>0</tilted></_>
    <_>
      <rects>
        <_>
          2 3 4 5 -1.</_>
        <_>
          4 3 2 5 2.</_></rects>
      <tilted>0</tilted></_>
    <_>
      <rects>
        <_>
          2 4 4 2 -1.</_>
        <_>
          2 4 2 2 2.</_></rects>
      <tilted>1</tilted></_>
    <_>
      <rects>
        <_>
          2 9 16 2 -1.</_>
        <_>
          6 9 8 2 2.</_></rects>
      <tilted>0</tilted></_>
    <_>
      <rects>
        <_>
          2 10 8 8 -1.</_>
        <_>
          2 10 4 4 2.</_>
        <_>
          6 14 4 4 2.</_></rects>
      <tilted>0</tilted></_>
    <_>
      <rects>
        <_>
          2 12 6 2 -1.</_>
        <_>
          2 12 6 1 2.</_></rects>
      <tilted>1</tilted></_>
    <_>
      <rects>
        <_>
          2 13 1 2 -1.</_>
        <_>
          2 13 1 1 2.</_></rects>
      <tilted>1</tilted></_>
    <_>
      <rects>
        <_>
          3 0 3 3 -1.</_>
        <_>
          4 1 1 3 3.</_></rects>
      <tilted>1</tilted></_>
    <_>
      <rects>
        <_>
          3 0 4 1 -1.</_>
        <_>
          3 0 2 1 2.</_></rects>
      <tilted>1</tilted></_>
    <_>
      <rects>
        <_>
          3 0 6 2 -1.</_>
        <_>
          5 2 2 2 3.</_></rects>
      <tilted>1</tilted></_>
    <_>
      <rects>
        <_>
          3 0 8 3 -1.</_>
        <_>
          5 2 4 3 2.</_></rects>
      <tilted>1</tilted></_>
    <_>
      <rects>
        <_>
          3 0 16 20 -1.</_>
        <_>
          3 5 16 10 2.</_></rects>
      <tilted>0</tilted></_>
    <_>
      <rects>
        <_>
          3 7 12 4 -1.</_>
        <_>
          7 7 4 4 3.</_></rects>
      <tilted>0</tilted></_>
    <_>
      <rects>
        <_>
          3 8 15 3 -1.</_>
        <_>
          8 8 5 3 3.</_></rects>
      <tilted>0</tilted></_>
    <_>
      <rects>
        <_>
          3 11 8 4 -1.</_>
        <_>
          3 11 4 2 2.</_>
        <_>
          7 13 4 2 2.</_></rects>
      <tilted>0</tilted></_>
    <_>
      <rects>
        <_>
          3 11 16 8 -1.</_>
        <_>
          3 15 16 4 2.</_></rects>
      <tilted>0</tilted></_>
    <_>
      <rects>
        <_>
          3 12 8 2 -1.</_>
        <_>
          5 12 4 2 2.</_></rects>
      <tilted>0</tilted></_>
    <_>
      <rects>
        <_>
          4 1 9 1 -1.</_>
        <_>
          7 4 3 1 3.</_></rects>
      <tilted>1</tilted></_>
    <_>
      <rects>
        <_>
          4 2 9 3 -1.</_>
        <_>
          7 5 3 3 3.</_></rects>
      <tilted>1</tilted></_>
    <_>
      <rects>
        <_>
          4 7 6 6 -1.</_>
        <_>
          6 9 2 2 9.</_></rects>
      <tilted>0</tilted></_>
    <_>
      <rects>
        <_>
          4 7 12 3 -1.</_>
        <_>
          8 7 4 3 3.</_></rects>
      <tilted>0</tilted></_>
    <_>
      <rects>
        <_>
          4 8 12 2 -1.</_>
        <_>
          7 8 6 2 2.</_></rects>
      <tilted>0</tilted></_>
    <_>
      <rects>
        <_>
          4 8 12 2 -1.</_>
        <_>
          8 8 4 2 3.</_></rects>
      <tilted>0</tilted></_>
    <_>
      <rects>
        <_>
          4 8 12 6 -1.</_>
        <_>
          8 10 4 2 9.</_></rects>
      <tilted>0</tilted></_>
    <_>
      <rects>
        <_>
          4 8 8 4 -1.</_>
        <_>
          8 8 4 4 2.</_></rects>
      <tilted>0</tilted></_>
    <_>
      <rects>
        <_>
          4 12 12 2 -1.</_>
        <_>
          7 12 6 2 2.</_></rects>
      <tilted>0</tilted></_>
    <_>
      <rects>
        <_>
          4 12 4 4 -1.</_>
        <_>
          3 13 4 2 2.</_></rects>
      <tilted>1</tilted></_>
    <_>
      <rects>
        <_>
          4 14 2 4 -1.</_>
        <_>
          4 14 2 2 2.</_></rects>
      <tilted>1</tilted></_>
    <_>
      <rects>
        <_>
          5 0 7 6 -1.</_>
        <_>
          5 2 7 2 3.</_></rects>
      <tilted>0</tilted></_>
    <_>
      <rects>
        <_>
          5 1 4 3 -1.</_>
        <_>
          6 2 2 3 2.</_></rects>
      <tilted>1</tilted></_>
    <_>
      <rects>
        <_>
          5 4 6 3 -1.</_>
        <_>
          8 4 3 3 2.</_></rects>
      <tilted>0</tilted></_>
    <_>
      <rects>
        <_>
          5 5 9 6 -1.</_>
        <_>
          8 7 3 2 9.</_></rects>
      <tilted>0</tilted></_>
    <_>
      <rects>
        <_>
          5 6 4 2 -1.</_>
        <_>
          5 6 2 2 2.</_></rects>
      <tilted>1</tilted></_>
    <_>
      <rects>
        <_>
          5 6 12 3 -1.</_>
        <_>
          9 6 4 3 3.</_></rects>
      <tilted>0</tilted></_>
    <_>
      <rects>
        <_>
          5 7 4 6 -1.</_>
        <_>
          7 7 2 6 2.</_></rects>
      <tilted>0</tilted></_>
    <_>
      <rects>
        <_>
          5 7 6 8 -1.</_>
        <_>
          5 7 3 4 2.</_>
        <_>
          8 11 3 4 2.</_></rects>
      <tilted>0</tilted></_>
    <_>
      <rects>
        <_>
          5 7 9 7 -1.</_>
        <_>
          8 7 3 7 3.</_></rects>
      <tilted>0</tilted></_>
    <_>
      <rects>
        <_>
          5 8 9 6 -1.</_>
        <_>
          8 10 3 2 9.</_></rects>
      <tilted>0</tilted></_>
    <_>
      <rects>
        <_>
          5 8 9 5 -1.</_>
        <_>
          8 8 3 5 3.</_></rects>
      <tilted>0</tilted></_>
    <_>
      <rects>
        <_>
          5 9 10 1 -1.</_>
        <_>
          10 9 5 1 2.</_></rects>
      <tilted>0</tilted></_>
    <_>
      <rects>
        <_>
          5 10 9 3 -1.</_>
        <_>
          8 11 3 1 9.</_></rects>
      <tilted>0</tilted></_>
    <_>
      <rects>
        <_>
          5 10 12 1 -1.</_>
        <_>
          9 10 4 1 3.</_></rects>
      <tilted>0</tilted></_>
    <_>
      <rects>
        <_>
          5 12 12 1 -1.</_>
        <_>
          8 12 6 1 2.</_></rects>
      <tilted>0</tilted></_>
    <_>
      <rects>
        <_>
          5 16 8 4 -1.</_>
        <_>
          5 17 8 2 2.</_></rects>
      <tilted>0</tilted></_>
    <_>
      <rects>
        <_>
          6 0 9 5 -1.</_>
        <_>
          9 3 3 5 3.</_></rects>
      <tilted>1</tilted></_>
    <_>
      <rects>
        <_>
          6 0 8 6 -1.</_>
        <_>
          6 2 8 2 3.</_></rects>
      <tilted>0</tilted></_>
    <_>
      <rects>
        <_>
          6 7 6 6 -1.</_>
        <_>
          8 9 2 2 9.</_></rects>
      <tilted>0</tilted></_>
    <_>
      <rects>
        <_>
          6 7 6 9 -1.</_>
        <_>
          8 10 2 3 9.</_></rects>
      <tilted>0</tilted></_>
    <_>
      <rects>
        <_>
          6 7 12 2 -1.</_>
        <_>
          9 7 6 2 2.</_></rects>
      <tilted>0</tilted></_>
    <_>
      <rects>
        <_>
          6 9 6 4 -1.</_>
        <_>
          8 9 2 4 3.</_></rects>
      <tilted>0</tilted></_>
    <_>
      <rects>
        <_>
          7 0 4 4 -1.</_>
        <_>
          7 1 4 2 2.</_></rects>
      <tilted>0</tilted></_>
    <_>
      <rects>
        <_>
          7 4 3 9 -1.</_>
        <_>
          7 7 3 3 3.</_></rects>
      <tilted>0</tilted></_>
    <_>
      <rects>
        <_>
          7 9 6 6 -1.</_>
        <_>
          9 11 2 2 9.</_></rects>
      <tilted>0</tilted></_>
    <_>
      <rects>
        <_>
          7 9 9 3 -1.</_>
        <_>
          10 10 3 1 9.</_></rects>
      <tilted>0</tilted></_>
    <_>
      <rects>
        <_>
          7 10 6 3 -1.</_>
        <_>
          9 11 2 1 9.</_></rects>
      <tilted>0</tilted></_>
    <_>
      <rects>
        <_>
          7 10 9 3 -1.</_>
        <_>
          10 10 3 3 3.</_></rects>
      <tilted>0</tilted></_>
    <_>
      <rects>
        <_>
          7 11 3 6 -1.</_>
        <_>
          7 13 3 2 3.</_></rects>
      <tilted>0</tilted></_>
    <_>
      <rects>
        <_>
          8 0 7 6 -1.</_>
        <_>
          8 2 7 2 3.</_></rects>
      <tilted>0</tilted></_>
    <_>
      <rects>
        <_>
          8 6 3 9 -1.</_>
        <_>
          9 9 1 3 9.</_></rects>
      <tilted>0</tilted></_>
    <_>
      <rects>
        <_>
          8 7 3 6 -1.</_>
        <_>
          9 9 1 2 9.</_></rects>
      <tilted>0</tilted></_>
    <_>
      <rects>
        <_>
          8 8 8 2 -1.</_>
        <_>
          10 8 4 2 2.</_></rects>
      <tilted>0</tilted></_>
    <_>
      <rects>
        <_>
          8 8 8 3 -1.</_>
        <_>
          10 8 4 3 2.</_></rects>
      <tilted>0</tilted></_>
    <_>
      <rects>
        <_>
          8 9 8 1 -1.</_>
        <_>
          10 9 4 1 2.</_></rects>
      <tilted>0</tilted></_>
    <_>
      <rects>
        <_>
          8 9 6 3 -1.</_>
        <_>
          10 10 2 1 9.</_></rects>
      <tilted>0</tilted></_>
    <_>
      <rects>
        <_>
          8 10 5 3 -1.</_>
        <_>
          8 11 5 1 3.</_></rects>
      <tilted>0</tilted></_>
    <_>
      <rects>
        <_>
          9 9 3 3 -1.</_>
        <_>
          10 10 1 1 9.</_></rects>
      <tilted>0</tilted></_>
    <_>
      <rects>
        <_>
          9 9 2 6 -1.</_>
        <_>
          7 11 2 2 3.</_></rects>
      <tilted>1</tilted></_>
    <_>
      <rects>
        <_>
          9 9 3 2 -1.</_>
        <_>
          9 9 3 1 2.</_></rects>
      <tilted>1</tilted></_>
    <_>
      <rects>
        <_>
          9 10 1 2 -1.</_>
        <_>
          9 11 1 1 2.</_></rects>
      <tilted>0</tilted></_>
    <_>
      <rects>
        <_>
          9 10 3 1 -1.</_>
        <_>
          10 10 1 1 3.</_></rects>
      <tilted>0</tilted></_>
    <_>
      <rects>
        <_>
          9 10 1 3 -1.</_>
        <_>
          9 11 1 1 3.</_></rects>
      <tilted>0</tilted></_>
    <_>
      <rects>
        <_>
          9 12 3 1 -1.</_>
        <_>
          10 12 1 1 3.</_></rects>
      <tilted>0</tilted></_>
    <_>
      <rects>
        <_>
          10 3 10 8 -1.</_>
        <_>
          10 3 5 4 2.</_>
        <_>
          15 7 5 4 2.</_></rects>
      <tilted>0</tilted></_>
    <_>
      <rects>
        <_>
          10 7 8 7 -1.</_>
        <_>
          12 7 4 7 2.</_></rects>
      <tilted>0</tilted></_>
    <_>
      <rects>
        <_>
          10 8 4 2 -1.</_>
        <_>
          11 8 2 2 2.</_></rects>
      <tilted>0</tilted></_>
    <_>
      <rects>
        <_>
          10 9 3 3 -1.</_>
        <_>
          11 10 1 1 9.</_></rects>
      <tilted>0</tilted></_>
    <_>
      <rects>
        <_>
          10 9 3 1 -1.</_>
        <_>
          11 10 1 1 3.</_></rects>
      <tilted>1</tilted></_>
    <_>
      <rects>
        <_>
          10 9 1 4 -1.</_>
        <_>
          10 9 1 2 2.</_></rects>
      <tilted>1</tilted></_>
    <_>
      <rects>
        <_>
          10 9 6 1 -1.</_>
        <_>
          12 9 2 1 3.</_></rects>
      <tilted>0</tilted></_>
    <_>
      <rects>
        <_>
          10 9 2 4 -1.</_>
        <_>
          10 10 2 2 2.</_></rects>
      <tilted>0</tilted></_>
    <_>
      <rects>
        <_>
          10 11 10 6 -1.</_>
        <_>
          10 11 5 3 2.</_>
        <_>
          15 14 5 3 2.</_></rects>
      <tilted>0</tilted></_>
    <_>
      <rects>
        <_>
          11 0 7 12 -1.</_>
        <_>
          11 4 7 4 3.</_></rects>
      <tilted>0</tilted></_>
    <_>
      <rects>
        <_>
          11 8 9 3 -1.</_>
        <_>
          14 11 3 3 3.</_></rects>
      <tilted>1</tilted></_>
    <_>
      <rects>
        <_>
          11 9 2 1 -1.</_>
        <_>
          11 9 1 1 2.</_></rects>
      <tilted>1</tilted></_>
    <_>
      <rects>
        <_>
          11 9 2 4 -1.</_>
        <_>
          11 9 1 2 2.</_>
        <_>
          12 11 1 2 2.</_></rects>
      <tilted>0</tilted></_>
    <_>
      <rects>
        <_>
          11 9 3 3 -1.</_>
        <_>
          12 9 1 3 3.</_></rects>
      <tilted>0</tilted></_>
    <_>
      <rects>
        <_>
          11 10 2 1 -1.</_>
        <_>
          11 10 1 1 2.</_></rects>
      <tilted>1</tilted></_>
    <_>
      <rects>
        <_>
          12 7 1 4 -1.</_>
        <_>
          11 8 1 2 2.</_></rects>
      <tilted>1</tilted></_>
    <_>
      <rects>
        <_>
          12 7 2 4 -1.</_>
        <_>
          11 8 2 2 2.</_></rects>
      <tilted>1</tilted></_>
    <_>
      <rects>
        <_>
          12 7 4 3 -1.</_>
        <_>
          12 7 2 3 2.</_></rects>
      <tilted>1</tilted></_>
    <_>
      <rects>
        <_>
          12 8 1 4 -1.</_>
        <_>
          11 9 1 2 2.</_></rects>
      <tilted>1</tilted></_>
    <_>
      <rects>
        <_>
          12 9 2 1 -1.</_>
        <_>
          12 9 1 1 2.</_></rects>
      <tilted>1</tilted></_>
    <_>
      <rects>
        <_>
          12 9 1 3 -1.</_>
        <_>
          11 10 1 1 3.</_></rects>
      <tilted>1</tilted></_>
    <_>
      <rects>
        <_>
          12 9 2 2 -1.</_>
        <_>
          12 9 1 2 2.</_></rects>
      <tilted>1</tilted></_>
    <_>
      <rects>
        <_>
          12 9 1 9 -1.</_>
        <_>
          9 12 1 3 3.</_></rects>
      <tilted>1</tilted></_>
    <_>
      <rects>
        <_>
          12 10 2 1 -1.</_>
        <_>
          12 10 1 1 2.</_></rects>
      <tilted>1</tilted></_>
    <_>
      <rects>
        <_>
          12 12 2 1 -1.</_>
        <_>
          12 12 1 1 2.</_></rects>
      <tilted>1</tilted></_>
    <_>
      <rects>
        <_>
          12 12 2 2 -1.</_>
        <_>
          12 12 1 2 2.</_></rects>
      <tilted>1</tilted></_>
    <_>
      <rects>
        <_>
          12 13 8 4 -1.</_>
        <_>
          12 13 4 2 2.</_>
        <_>
          16 15 4 2 2.</_></rects>
      <tilted>0</tilted></_>
    <_>
      <rects>
        <_>
          13 3 2 6 -1.</_>
        <_>
          11 5 2 2 3.</_></rects>
      <tilted>1</tilted></_>
    <_>
      <rects>
        <_>
          13 7 2 2 -1.</_>
        <_>
          13 7 2 1 2.</_></rects>
      <tilted>1</tilted></_>
    <_>
      <rects>
        <_>
          13 8 2 4 -1.</_>
        <_>
          14 8 1 4 2.</_></rects>
      <tilted>0</tilted></_>
    <_>
      <rects>
        <_>
          13 12 2 4 -1.</_>
        <_>
          13 14 2 2 2.</_></rects>
      <tilted>0</tilted></_>
    <_>
      <rects>
        <_>
          14 4 6 6 -1.</_>
        <_>
          14 4 3 3 2.</_>
        <_>
          17 7 3 3 2.</_></rects>
      <tilted>0</tilted></_>
    <_>
      <rects>
        <_>
          14 7 4 1 -1.</_>
        <_>
          14 7 2 1 2.</_></rects>
      <tilted>1</tilted></_>
    <_>
      <rects>
        <_>
          14 8 4 1 -1.</_>
        <_>
          14 8 2 1 2.</_></rects>
      <tilted>1</tilted></_>
    <_>
      <rects>
        <_>
          14 11 2 1 -1.</_>
        <_>
          14 11 1 1 2.</_></rects>
      <tilted>1</tilted></_>
    <_>
      <rects>
        <_>
          14 12 2 2 -1.</_>
        <_>
          14 13 2 1 2.</_></rects>
      <tilted>0</tilted></_>
    <_>
      <rects>
        <_>
          14 12 6 8 -1.</_>
        <_>
          14 12 3 4 2.</_>
        <_>
          17 16 3 4 2.</_></rects>
      <tilted>0</tilted></_>
    <_>
      <rects>
        <_>
          14 12 4 4 -1.</_>
        <_>
          14 14 4 2 2.</_></rects>
      <tilted>0</tilted></_>
    <_>
      <rects>
        <_>
          15 10 2 3 -1.</_>
        <_>
          15 10 1 3 2.</_></rects>
      <tilted>1</tilted></_>
    <_>
      <rects>
        <_>
          15 11 3 8 -1.</_>
        <_>
          15 13 3 4 2.</_></rects>
      <tilted>0</tilted></_>
    <_>
      <rects>
        <_>
          15 12 2 8 -1.</_>
        <_>
          15 14 2 4 2.</_></rects>
      <tilted>0</tilted></_>
    <_>
      <rects>
        <_>
          15 16 1 4 -1.</_>
        <_>
          15 17 1 2 2.</_></rects>
      <tilted>0</tilted></_>
    <_>
      <rects>
        <_>
          16 2 4 8 -1.</_>
        <_>
          16 6 4 4 2.</_></rects>
      <tilted>0</tilted></_>
    <_>
      <rects>
        <_>
          16 3 4 14 -1.</_>
        <_>
          18 3 2 14 2.</_></rects>
      <tilted>0</tilted></_>
    <_>
      <rects>
        <_>
          16 8 1 3 -1.</_>
        <_>
          15 9 1 1 3.</_></rects>
      <tilted>1</tilted></_>
    <_>
      <rects>
        <_>
          16 9 4 4 -1.</_>
        <_>
          17 9 2 4 2.</_></rects>
      <tilted>0</tilted></_>
    <_>
      <rects>
        <_>
          16 9 4 8 -1.</_>
        <_>
          16 9 2 4 2.</_>
        <_>
          18 13 2 4 2.</_></rects>
      <tilted>0</tilted></_>
    <_>
      <rects>
        <_>
          16 11 3 9 -1.</_>
        <_>
          16 14 3 3 3.</_></rects>
      <tilted>0</tilted></_>
    <_>
      <rects>
        <_>
          17 9 3 4 -1.</_>
        <_>
          18 9 1 4 3.</_></rects>
      <tilted>0</tilted></_>
    <_>
      <rects>
        <_>
          17 14 2 4 -1.</_>
        <_>
          17 15 2 2 2.</_></rects>
      <tilted>0</tilted></_>
    <_>
      <rects>
        <_>
          18 1 1 18 -1.</_>
        <_>
          18 7 1 6 3.</_></rects>
      <tilted>0</tilted></_>
    <_>
      <rects>
        <_>
          18 9 2 8 -1.</_>
        <_>
          19 9 1 8 2.</_></rects>
      <tilted>0</tilted></_>
    <_>
      <rects>
        <_>
          19 0 1 12 -1.</_>
        <_>
          19 4 1 4 3.</_></rects>
      <tilted>0</tilted></_></features></cascade>
</opencv_storage>
